{"learner":{"attributes":{"scikit_learn":"{\"_estimator_type\": \"regressor\"}"},"feature_names":["longitude","latitude","housing_median_age","total_rooms","total_bedrooms","population","households","median_income","ocean_proximity"],"feature_types":["float","float","float","float","float","float","float","float","int"],"gradient_booster":{"model":{"gbtree_model_param":{"num_parallel_tree":"1","num_trees":"100"},"iteration_indptr":[0,1,2,3,4,5,6,7,8,9,10,11,12,13,14,15,16,17,18,19,20,21,22,23,24,25,26,27,28,29,30,31,32,33,34,35,36,37,38,39,40,41,42,43,44,45,46,47,48,49,50,51,52,53,54,55,56,57,58,59,60,61,62,63,64,65,66,67,68,69,70,71,72,73,74,75,76,77,78,79,80,81,82,83,84,85,86,87,88,89,90,91,92,93,94,95,96,97,98,99,100],"tree_info":[0,0,0,0,0,0,0,0,0,0,0,0,0,0,0,0,0,0,0,0,0,0,0,0,0,0,0,0,0,0,0,0,0,0,0,0,0,0,0,0,0,0,0,0,0,0,0,0,0,0,0,0,0,0,0,0,0,0,0,0,0,0,0,0,0,0,0,0,0,0,0,0,0,0,0,0,0,0,0,0,0,0,0,0,0,0,0,0,0,0,0,0,0,0,0,0,0,0,0,0],"trees":[{"base_weights":[6.904852E-3,-3.342219E4,1.2362141E5,-7.031213E4,2.7497798E3,8.374978E4,2.1475353E5,-3.4738254E4,-8.920387E4,-1.2323067E4,4.7730418E4,7.019801E4,1.5177372E5,1.6582819E5,2.5011331E5,-6.7953643E3,-5.1332473E4,-1.143637E5,-3.668239E4,2.003327E4,-6.476791E4,1.0983026E5,2.5286293E4,4.869319E4,9.93205E4,1.2331571E5,1.8598211E5,1.33857E5,2.1325639E5,2.2212677E5,2.6948294E5,1.8859664E4,-4.8491977E4,-6.3247484E4,-2.0429559E4,-1.2503193E5,-9.990876E4,-5.8134465E4,-8.235932E3,4.9072414E4,-3.9084075E3,-7.673145E4,-4.296651E4,7.077126E4,1.5368523E5,3.640107E4,-5.534317E4,1.8833514E4,6.639868E4,8.476631E4,1.4538086E5,4.846267E4,1.3648747E5,-1.2612349E4,1.9145566E5,1.2225782E5,1.777735E5,4.3820527E4,2.1935716E5,1.8816675E5,2.6760766E5,1.0690862E5,2.7486794E5,1.2242309E4,-3.386135E3,-1.0905385E4,-3.1492086E4,-2.6866707E4,-1.4444704E4,1.0787131E3,-1.1564576E4,-2.6547775E4,-3.8001316E4,-2.5363475E4,-3.130915E4,-1.3964208E4,-2.7377914E4,9.093647E2,-2.2695387E4,3.408682E4,4.4604824E3,-2.6097075E3,8.853457E3,-1.8692812E4,-2.4738266E4,-1.4350005E4,-4.3590845E3,2.446087E4,-2.5778832E4,3.0333377E4,6.520885E4,2.0160715E4,-3.665456E3,-1.91444E4,-8.89572E3,1.3612461E4,-4.6935464E2,2.351254E4,1.0997916E4,2.2685396E4,4.5805918E4,3.735676E4,5.2695613E4,2.0940033E4,-3.742712E3,4.6847668E4,3.1756273E4,-1.8951992E4,1.2330509E4,6.337877E4,5.241369E4,4.1445746E4,1.8615668E4,1.1348009E4,5.509519E4,-2.0904662E4,2.0015594E4,7.010352E4,4.8958344E4,6.000067E4,4.052985E4,8.079808E4,3.082712E4,4.439149E4,-1.5981992E4,8.262687E4,5.2703394E3],"categories":[],"categories_nodes":[],"categories_segments":[],"categories_sizes":[],"default_left":[0,0,0,0,0,0,0,0,0,0,0,0,0,0,0,0,0,0,0,0,0,0,0,0,0,0,0,0,0,0,0,0,0,0,0,0,0,0,0,0,0,0,0,0,0,0,0,0,0,0,0,0,0,0,0,0,0,0,0,0,0,0,0,0,0,0,0,0,0,0,0,0,0,0,0,0,0,0,0,0,0,0,0,0,0,0,0,0,0,0,0,0,0,0,0,0,0,0,0,0,0,0,0,0,0,0,0,0,0,0,0,0,0,0,0,0,0,0,0,0,0,0,0,0,0,0,0],"id":0,"left_children":[1,3,5,7,9,11,13,15,17,19,21,23,25,27,29,31,33,35,37,39,41,43,45,47,49,51,53,55,57,59,61,63,65,67,69,71,73,75,77,79,81,83,85,87,89,91,93,95,97,99,101,103,105,107,109,111,113,115,117,119,121,123,125,-1,-1,-1,-1,-1,-1,-1,-1,-1,-1,-1,-1,-1,-1,-1,-1,-1,-1,-1,-1,-1,-1,-1,-1,-1,-1,-1,-1,-1,-1,-1,-1,-1,-1,-1,-1,-1,-1,-1,-1,-1,-1,-1,-1,-1,-1,-1,-1,-1,-1,-1,-1,-1,-1,-1,-1,-1,-1,-1,-1,-1,-1,-1,-1],"loss_changes":[8.443127E13,2.146506E13,1.5784487E13,5.349126E12,5.507871E12,2.7797687E12,2.2472913E12,1.2812915E12,6.8685755E12,1.0327074E13,2.8391333E12,1.5771317E12,4.6576383E11,8.1756946E11,3.5538338E11,1.1038037E12,6.3718136E11,5.2970285E11,1.0283786E12,2.6170968E12,6.023314E11,9.1581946E11,1.345386E12,7.6797916E11,7.0631555E11,2.664927E11,2.4807997E11,1.494226E11,2.2090141E11,4.4235227E11,3.6282198E11,4.2326295E11,2.6567462E11,4.9260265E11,2.1083085E11,1.0971251E11,9.371124E10,3.6460875E11,5.516835E11,3.753928E12,3.3070737E11,1.1864218E11,1.13480565E11,4.928273E11,8.2835984E11,1.9745745E12,3.7718065E10,2.9404647E11,3.223071E11,4.9610123E11,1.3976732E11,5.6782365E10,1.250807E11,2.1607365E10,3.6050043E10,2.4884596E11,4.8982E10,2.8040094E10,1.3479235E11,8.980162E10,1.0303308E10,1.1312377E11,5.698591E10,0E0,0E0,0E0,0E0,0E0,0E0,0E0,0E0,0E0,0E0,0E0,0E0,0E0,0E0,0E0,0E0,0E0,0E0,0E0,0E0,0E0,0E0,0E0,0E0,0E0,0E0,0E0,0E0,0E0,0E0,0E0,0E0,0E0,0E0,0E0,0E0,0E0,0E0,0E0,0E0,0E0,0E0,0E0,0E0,0E0,0E0,0E0,0E0,0E0,0E0,0E0,0E0,0E0,0E0,0E0,0E0,0E0,0E0,0E0,0E0,0E0,0E0,0E0,0E0],"parents":[2147483647,0,0,1,1,2,2,3,3,4,4,5,5,6,6,7,7,8,8,9,9,10,10,11,11,12,12,13,13,14,14,15,15,16,16,17,17,18,18,19,19,20,20,21,21,22,22,23,23,24,24,25,25,26,26,27,27,28,28,29,29,30,30,31,31,32,32,33,33,34,34,35,35,36,36,37,37,38,38,39,39,40,40,41,41,42,42,43,43,44,44,45,45,46,46,47,47,48,48,49,49,50,50,51,51,52,52,53,53,54,54,55,55,56,56,57,57,58,58,59,59,60,60,61,61,62,62],"right_children":[2,4,6,8,10,12,14,16,18,20,22,24,26,28,30,32,34,36,38,40,42,44,46,48,50,52,54,56,58,60,62,64,66,68,70,72,74,76,78,80,82,84,86,88,90,92,94,96,98,100,102,104,106,108,110,112,114,116,118,120,122,124,126,-1,-1,-1,-1,-1,-1,-1,-1,-1,-1,-1,-1,-1,-1,-1,-1,-1,-1,-1,-1,-1,-1,-1,-1,-1,-1,-1,-1,-1,-1,-1,-1,-1,-1,-1,-1,-1,-1,-1,-1,-1,-1,-1,-1,-1,-1,-1,-1,-1,-1,-1,-1,-1,-1,-1,-1,-1,-1,-1,-1,-1,-1,-1,-1],"split_conditions":[5.0329E0,3.1071E0,6.822E0,1E0,2E0,3.7E1,7.8193E0,-1.183E2,2E0,1E0,-1.2236E2,5.7914E0,5.697E0,2.7E1,8.7496E0,3.464E1,3.405E1,2.3669E0,2.5083E0,-1.1831E2,4.0602E0,4.8E1,-1.1715E2,1.8E1,2.8E1,2.18E2,3.11E2,2E0,7.8E1,2.9E1,2.8E1,-1.1835E2,3.889E1,-1.1822E2,-1.1823E2,5.7E1,3.42E1,-1.1715E2,3.793E1,3.418E1,3.41E1,3.436E1,3.4E1,3.876E1,3.777E1,3.76E1,3.276E1,1E0,-1.1806E2,4E0,6.3427E0,-1.1836E2,-1.1836E2,4.2E1,3.416E1,1E0,3.269E1,6.2E1,3.758E1,-1.1771E2,3.855E1,-1.2096E2,3.799E1,1.2242309E4,-3.386135E3,-1.0905385E4,-3.1492086E4,-2.6866707E4,-1.4444704E4,1.0787131E3,-1.1564576E4,-2.6547775E4,-3.8001316E4,-2.5363475E4,-3.130915E4,-1.3964208E4,-2.7377914E4,9.093647E2,-2.2695387E4,3.408682E4,4.4604824E3,-2.6097075E3,8.853457E3,-1.8692812E4,-2.4738266E4,-1.4350005E4,-4.3590845E3,2.446087E4,-2.5778832E4,3.0333377E4,6.520885E4,2.0160715E4,-3.665456E3,-1.91444E4,-8.89572E3,1.3612461E4,-4.6935464E2,2.351254E4,1.0997916E4,2.2685396E4,4.5805918E4,3.735676E4,5.2695613E4,2.0940033E4,-3.742712E3,4.6847668E4,3.1756273E4,-1.8951992E4,1.2330509E4,6.337877E4,5.241369E4,4.1445746E4,1.8615668E4,1.1348009E4,5.509519E4,-2.0904662E4,2.0015594E4,7.010352E4,4.8958344E4,6.000067E4,4.052985E4,8.079808E4,3.082712E4,4.439149E4,-1.5981992E4,8.262687E4,5.2703394E3],"split_indices":[7,7,7,8,8,2,7,0,8,8,0,7,7,2,7,1,1,7,7,0,7,2,0,2,2,6,3,8,4,2,4,0,1,0,0,6,1,0,1,1,1,1,2,1,1,1,1,8,0,8,7,0,0,4,1,8,1,3,1,0,1,0,1,0,0,0,0,0,0,0,0,0,0,0,0,0,0,0,0,0,0,0,0,0,0,0,0,0,0,0,0,0,0,0,0,0,0,0,0,0,0,0,0,0,0,0,0,0,0,0,0,0,0,0,0,0,0,0,0,0,0,0,0,0,0,0,0],"split_type":[0,0,0,0,0,0,0,0,0,0,0,0,0,0,0,0,0,0,0,0,0,0,0,0,0,0,0,0,0,0,0,0,0,0,0,0,0,0,0,0,0,0,0,0,0,0,0,0,0,0,0,0,0,0,0,0,0,0,0,0,0,0,0,0,0,0,0,0,0,0,0,0,0,0,0,0,0,0,0,0,0,0,0,0,0,0,0,0,0,0,0,0,0,0,0,0,0,0,0,0,0,0,0,0,0,0,0,0,0,0,0,0,0,0,0,0,0,0,0,0,0,0,0,0,0,0,0],"sum_hessian":[2.0433E4,1.6085E4,4.348E3,7.963E3,8.122E3,3.026E3,1.322E3,2.763E3,5.2E3,6.084E3,2.038E3,2.525E3,5.01E2,5.57E2,7.65E2,1.03E3,1.733E3,3.515E3,1.685E3,3.763E3,2.321E3,5.4E2,1.498E3,1.454E3,1.071E3,2.76E2,2.25E2,3.35E2,2.22E2,3.18E2,4.47E2,6.38E2,3.92E2,1.25E3,4.83E2,2.018E3,1.497E3,9.6E2,7.25E2,1.7E3,2.063E3,1.497E3,8.24E2,2.87E2,2.53E2,1.317E3,1.81E2,5.42E2,9.12E2,8.16E2,2.55E2,4.2E1,2.34E2,6E0,2.19E2,2.68E2,6.7E1,8E0,2.14E2,1.85E2,1.33E2,1.5E1,4.32E2,3.69E2,2.69E2,3.24E2,6.8E1,4.54E2,7.96E2,2.08E2,2.75E2,8.9E1,1.929E3,3.41E2,1.156E3,7.13E2,2.47E2,6.22E2,1.03E2,5.88E2,1.112E3,1.805E3,2.58E2,4.29E2,1.068E3,7.03E2,1.21E2,2.69E2,1.8E1,1.4E2,1.13E2,8.06E2,5.11E2,1.35E2,4.6E1,2.35E2,3.07E2,6.49E2,2.63E2,7.21E2,9.5E1,1.54E2,1.01E2,3.1E1,1.1E1,1.4E2,9.4E1,3E0,3E0,9.5E1,1.24E2,2.11E2,5.7E1,3E0,6.4E1,1E0,7E0,1.68E2,4.6E1,1.49E2,3.6E1,1.31E2,2E0,1.2E1,3E0,4.31E2,1E0],"tree_param":{"num_deleted":"0","num_feature":"9","num_nodes":"127","size_leaf_vector":"1"}},{"base_weights":[3.817294E1,-2.8865178E4,7.1892234E4,-5.458836E4,-7.9102563E3,4.29202E4,1.3719622E5,-2.9581662E4,-6.7251914E4,-1.3881978E4,5.2022895E4,3.2759832E4,8.9877086E4,1.08736664E5,1.7550811E5,-4.3367418E4,-1.1649447E4,-8.309999E4,-3.217948E4,4.3886924E3,-2.924831E4,9.922566E4,2.3979287E4,2.4182242E4,6.4341496E4,7.582542E4,1.2668135E5,8.644493E4,1.4367823E5,1.4599294E5,1.874369E5,1.08558625E5,-4.8766297E4,-1.925271E1,-3.7660156E4,-9.105741E4,-7.5658484E4,-2.3761926E4,-7.814083E4,2.2295686E4,-1.1912461E4,-5.3552043E4,8.619838E3,-4.576489E4,1.0850257E5,5.410507E4,3.3661921E3,4.23956E4,-2.1419734E4,-5.8751865E3,7.297579E4,1.671139E5,7.054048E4,1.3196936E5,-1.5405096E4,8.038854E4,1.2630831E5,1.4625344E5,2.8105168E4,1.2356128E5,1.7766633E5,7.6627234E4,1.9087908E5,8.65113E3,3.6212117E4,-1.7576297E4,-9.578188E3,6.6903354E3,-7.4246235E3,-8.041851E3,-2.2746346E4,-3.698426E3,-2.7563246E4,-1.2527598E4,-2.303497E4,2.3661188E4,-1.0390881E4,-1.87229E4,-3.1289408E4,1.8401332E4,-3.833506E2,-7.6549316E3,-1.8298251E3,-1.8763596E4,-1.3111231E4,4.981626E3,-1.4717151E4,-2.918419E4,7.2557817E0,2.0505127E4,4.7269465E4,3.3584227E4,5.226076E3,4.0110808E3,-1.3887724E4,1.7831363E4,7.8680493E3,-7.763041E3,3.118041E3,1.6806701E4,-5.3392393E3,2.8614088E4,1.369509E4,5.6972492E4,-5.138842E3,2.734915E4,1.0362936E4,4.866736E4,3.3563223E4,-9.639233E3,3.1694064E2,2.6904037E4,1.6832467E4,4.1560395E4,1.303304E4,-7.2914814E3,4.428832E4,2.1295295E4,-1.2366697E2,3.2728227E4,4.58995E4,5.419054E4,9.110937E3,3.0888748E4,-1.2386042E4,5.2768086E4,6.1608863E4],"categories":[],"categories_nodes":[],"categories_segments":[],"categories_sizes":[],"default_left":[0,0,0,0,0,0,0,0,0,0,0,0,0,0,0,0,0,0,0,0,0,0,0,0,0,0,0,0,0,0,0,0,0,0,0,0,0,0,0,0,0,0,0,0,0,0,0,0,0,0,0,0,0,0,0,0,0,0,0,0,0,0,0,0,0,0,0,0,0,0,0,0,0,0,0,0,0,0,0,0,0,0,0,0,0,0,0,0,0,0,0,0,0,0,0,0,0,0,0,0,0,0,0,0,0,0,0,0,0,0,0,0,0,0,0,0,0,0,0,0,0,0,0,0,0,0,0],"id":1,"left_children":[1,3,5,7,9,11,13,15,17,19,21,23,25,27,29,31,33,35,37,39,41,43,45,47,49,51,53,55,57,59,61,63,65,67,69,71,73,75,77,79,81,83,85,87,89,91,93,95,97,99,101,103,105,107,109,111,113,115,117,119,121,123,125,-1,-1,-1,-1,-1,-1,-1,-1,-1,-1,-1,-1,-1,-1,-1,-1,-1,-1,-1,-1,-1,-1,-1,-1,-1,-1,-1,-1,-1,-1,-1,-1,-1,-1,-1,-1,-1,-1,-1,-1,-1,-1,-1,-1,-1,-1,-1,-1,-1,-1,-1,-1,-1,-1,-1,-1,-1,-1,-1,-1,-1,-1,-1,-1],"loss_changes":[4.2439876E13,7.8548115E12,1.1084952E13,2.0696898E12,2.8754075E12,1.9350327E12,1.9446198E12,5.436021E11,2.4107433E12,2.0510306E12,9.613E11,9.035026E11,3.6378457E11,7.9452806E11,2.4232801E11,1.0256604E12,2.8980347E11,1.7016291E11,5.2159486E11,9.746433E11,3.65236E12,3.6947834E11,2.842293E11,2.1844639E12,4.3270013E11,2.4150042E11,1.5080096E11,1.4315317E11,1.155342E11,1.3790662E11,1.9210332E11,3.81643E10,1.9691864E11,3.6650893E11,1.2057041E11,9.184058E10,5.5932092E10,1.2806222E12,7.949071E10,1.4643703E12,1.3807711E11,2.1132843E11,7.156417E11,4.0102937E10,4.9156928E11,3.927299E11,1.362422E11,5.1620453E11,1.06755916E11,5.929585E10,3.8440167E11,1.2084511E11,3.6655936E11,9.795692E10,2.236592E9,1.1995185E11,7.705854E10,9.5707726E10,1.2257275E10,4.0801403E10,3.4307834E10,6.0146336E10,7.782741E10,0E0,0E0,0E0,0E0,0E0,0E0,0E0,0E0,0E0,0E0,0E0,0E0,0E0,0E0,0E0,0E0,0E0,0E0,0E0,0E0,0E0,0E0,0E0,0E0,0E0,0E0,0E0,0E0,0E0,0E0,0E0,0E0,0E0,0E0,0E0,0E0,0E0,0E0,0E0,0E0,0E0,0E0,0E0,0E0,0E0,0E0,0E0,0E0,0E0,0E0,0E0,0E0,0E0,0E0,0E0,0E0,0E0,0E0,0E0,0E0,0E0,0E0,0E0,0E0],"parents":[2147483647,0,0,1,1,2,2,3,3,4,4,5,5,6,6,7,7,8,8,9,9,10,10,11,11,12,12,13,13,14,14,15,15,16,16,17,17,18,18,19,19,20,20,21,21,22,22,23,23,24,24,25,25,26,26,27,27,28,28,29,29,30,30,31,31,32,32,33,33,34,34,35,35,36,36,37,37,38,38,39,39,40,40,41,41,42,42,43,43,44,44,45,45,46,46,47,47,48,48,49,49,50,50,51,51,52,52,53,53,54,54,55,55,56,56,57,57,58,58,59,59,60,60,61,61,62,62],"right_children":[2,4,6,8,10,12,14,16,18,20,22,24,26,28,30,32,34,36,38,40,42,44,46,48,50,52,54,56,58,60,62,64,66,68,70,72,74,76,78,80,82,84,86,88,90,92,94,96,98,100,102,104,106,108,110,112,114,116,118,120,122,124,126,-1,-1,-1,-1,-1,-1,-1,-1,-1,-1,-1,-1,-1,-1,-1,-1,-1,-1,-1,-1,-1,-1,-1,-1,-1,-1,-1,-1,-1,-1,-1,-1,-1,-1,-1,-1,-1,-1,-1,-1,-1,-1,-1,-1,-1,-1,-1,-1,-1,-1,-1,-1,-1,-1,-1,-1,-1,-1,-1,-1,-1,-1,-1,-1],"split_conditions":[4.5268E0,2.8333E0,6.3427E0,1E0,4.8E1,3.7E1,7.8193E0,3.405E1,2E0,1E0,-1.223E2,2E0,5E1,2.7E1,1.9E1,-1.1838E2,3.464E1,2.1107E0,3.792E1,-1.1827E2,2E0,-1.226E2,3.412E1,1E0,3.285E1,3.375E1,3.799E1,4E0,3.803E1,9.2873E0,2.49E2,6.29E2,-1.1818E2,-1.1827E2,3.853E1,1.4E1,1.98E2,-1.2236E2,3.926E1,3.418E1,1.574E3,3.55E0,-1.1715E2,-1.2286E2,3.777E1,-1.1832E2,3.792E1,-1.1832E2,2.8E1,-1.172E2,3.758E1,-1.1715E2,-1.1837E2,-1.223E2,-1.2148E2,1E0,-1.1723E2,1.93E2,1.61E2,3.692E1,3.799E1,-1.1844E2,9.2873E0,8.65113E3,3.6212117E4,-1.7576297E4,-9.578188E3,6.6903354E3,-7.4246235E3,-8.041851E3,-2.2746346E4,-3.698426E3,-2.7563246E4,-1.2527598E4,-2.303497E4,2.3661188E4,-1.0390881E4,-1.87229E4,-3.1289408E4,1.8401332E4,-3.833506E2,-7.6549316E3,-1.8298251E3,-1.8763596E4,-1.3111231E4,4.981626E3,-1.4717151E4,-2.918419E4,7.2557817E0,2.0505127E4,4.7269465E4,3.3584227E4,5.226076E3,4.0110808E3,-1.3887724E4,1.7831363E4,7.8680493E3,-7.763041E3,3.118041E3,1.6806701E4,-5.3392393E3,2.8614088E4,1.369509E4,5.6972492E4,-5.138842E3,2.734915E4,1.0362936E4,4.866736E4,3.3563223E4,-9.639233E3,3.1694064E2,2.6904037E4,1.6832467E4,4.1560395E4,1.303304E4,-7.2914814E3,4.428832E4,2.1295295E4,-1.2366697E2,3.2728227E4,4.58995E4,5.419054E4,9.110937E3,3.0888748E4,-1.2386042E4,5.2768086E4,6.1608863E4],"split_indices":[7,7,7,8,2,2,7,1,8,8,0,8,2,2,2,0,1,7,1,0,8,0,1,8,1,1,1,8,1,7,3,3,0,0,1,6,5,0,1,1,3,7,0,0,1,0,1,0,2,0,1,0,0,0,0,8,0,3,4,1,1,0,7,0,0,0,0,0,0,0,0,0,0,0,0,0,0,0,0,0,0,0,0,0,0,0,0,0,0,0,0,0,0,0,0,0,0,0,0,0,0,0,0,0,0,0,0,0,0,0,0,0,0,0,0,0,0,0,0,0,0,0,0,0,0,0,0],"split_type":[0,0,0,0,0,0,0,0,0,0,0,0,0,0,0,0,0,0,0,0,0,0,0,0,0,0,0,0,0,0,0,0,0,0,0,0,0,0,0,0,0,0,0,0,0,0,0,0,0,0,0,0,0,0,0,0,0,0,0,0,0,0,0,0,0,0,0,0,0,0,0,0,0,0,0,0,0,0,0,0,0,0,0,0,0,0,0,0,0,0,0,0,0,0,0,0,0,0,0,0,0,0,0,0,0,0,0,0,0,0,0,0,0,0,0,0,0,0,0,0,0,0,0,0,0,0,0],"sum_hessian":[2.0433E4,1.4572E4,5.861E3,6.541E3,8.031E3,4.061E3,1.8E3,2.2E3,4.341E3,7.304E3,7.27E2,3.34E3,7.21E2,1.035E3,7.65E2,1.243E3,9.57E2,2.989E3,1.352E3,3.337E3,3.967E3,2.7E2,4.57E2,2.628E3,7.12E2,5.24E2,1.97E2,6.34E2,4.01E2,2.24E2,5.41E2,4.2E1,1.201E3,6.62E2,2.95E2,1.439E3,1.55E3,1.144E3,2.08E2,1.59E3,1.747E3,2.416E3,1.551E3,1.6E1,2.54E2,1.85E2,2.72E2,1.878E3,7.5E2,7.8E1,6.34E2,2.7E1,4.97E2,1.9E2,7E0,5.53E2,8.1E1,3.92E2,9E0,1.34E2,9E1,1.7E1,5.24E2,6E0,3.6E1,7.57E2,4.44E2,3.48E2,3.14E2,2.31E2,6.4E1,1.5E1,1.424E3,5.1E1,1.499E3,1.09E2,1.035E3,1.32E2,7.6E1,5.98E2,9.92E2,5.22E2,1.225E3,1.26E3,1.156E3,1.363E3,1.88E2,7E0,9E0,1.41E2,1.13E2,7.1E1,1.14E2,2.27E2,4.5E1,9.13E2,9.65E2,6.58E2,9.2E1,1.2E1,6.6E1,3.47E2,2.87E2,2.4E1,3E0,3.15E2,1.82E2,7.3E1,1.17E2,3E0,4E0,3.98E2,1.55E2,7E1,1.1E1,3E0,3.89E2,3E0,6E0,9.3E1,4.1E1,8.8E1,2E0,1.4E1,3E0,2.64E2,2.6E2],"tree_param":{"num_deleted":"0","num_feature":"9","num_nodes":"127","size_leaf_vector":"1"}},{"base_weights":[5.5382793E1,-1.3429746E4,7.8610516E4,-3.0752602E4,1.1454226E4,6.1873957E4,1.2117181E5,-1.5119646E4,-3.9799297E4,4.5276724E3,4.1474516E4,4.651773E4,8.816511E4,9.689626E4,1.3157597E5,-2.8971752E4,-5.65986E3,-5.37231E4,-1.2922979E4,9.614369E3,-2.1679514E4,2.4575156E4,7.287871E4,3.6339066E4,6.3517508E4,8.160574E4,1.260702E5,8.096821E4,1.25062055E5,1.3332425E5,1.7192828E4,9.4670766E4,-3.05063E4,-4.300991E4,-2.2004497E3,-6.092013E4,-4.5452047E4,-4.526936E3,-5.0282508E4,1.660762E4,-2.0132375E4,-8.5806476E2,-2.758294E4,2.405404E3,3.861841E4,7.894105E4,-1.532269E4,4.218381E4,2.8587994E2,9.49367E4,5.606046E4,4.1686848E4,8.7959664E4,1.317158E5,1.5560052E3,6.537476E4,1.0840411E5,6.702375E3,1.27646516E5,5.585495E4,1.3514498E5,-2.1696695E4,3.5174766E4,1.104157E4,3.556403E4,-4.5750366E3,-1.2967789E4,-8.093424E3,-1.7728754E4,2.1768582E3,-5.5918403E3,-2.0198809E4,-1.6108918E4,1.6948E4,-1.3751536E4,1.8222496E3,-1.6018745E4,-1.6671084E4,-8.474861E3,2.105727E4,4.0320635E3,-3.3962295E3,-1.3117484E4,3.6977717E3,-2.0139027E4,-1.0769262E4,-2.900636E3,-1.0015505E4,3.6435935E3,3.7302484E4,1.0145247E4,3.8338152E4,1.9413443E4,5.7588223E3,-1.0580346E4,3.0586572E4,1.1071402E4,1.5148901E4,-3.0783525E3,3.5600062E4,2.2526809E4,1.2091094E4,1.9384998E4,1.790108E4,1.8274879E3,2.2250424E4,3.2143133E4,-1.2703687E4,4.059937E4,-4.6105034E3,4.15808E3,2.461352E4,1.0004997E4,3.6557074E4,2.6747375E4,-3.6669658E3,6.6830347E3,3.892294E4,7.2887485E3,-1.980972E3,3.845372E4,4.207666E4,3.198428E4,1.3485228E4,-6.4549736E3],"categories":[],"categories_nodes":[],"categories_segments":[],"categories_sizes":[],"default_left":[0,0,0,0,0,0,0,0,0,0,0,0,0,0,0,0,0,0,0,0,0,0,0,0,0,0,0,0,0,0,0,0,0,0,0,0,0,0,0,0,0,0,0,0,0,0,0,0,0,0,0,0,0,0,0,0,0,0,0,0,0,0,0,0,0,0,0,0,0,0,0,0,0,0,0,0,0,0,0,0,0,0,0,0,0,0,0,0,0,0,0,0,0,0,0,0,0,0,0,0,0,0,0,0,0,0,0,0,0,0,0,0,0,0,0,0,0,0,0,0,0,0,0,0,0],"id":2,"left_children":[1,3,5,7,9,11,13,15,17,19,21,23,25,27,29,31,33,35,37,39,41,43,45,47,49,51,53,55,57,59,61,63,65,67,69,71,73,75,77,79,81,83,85,87,89,91,93,95,97,99,101,103,105,107,109,111,113,115,117,119,121,-1,123,-1,-1,-1,-1,-1,-1,-1,-1,-1,-1,-1,-1,-1,-1,-1,-1,-1,-1,-1,-1,-1,-1,-1,-1,-1,-1,-1,-1,-1,-1,-1,-1,-1,-1,-1,-1,-1,-1,-1,-1,-1,-1,-1,-1,-1,-1,-1,-1,-1,-1,-1,-1,-1,-1,-1,-1,-1,-1,-1,-1,-1,-1],"loss_changes":[2.1647325E13,7.5184944E12,2.1252161E12,1.4536881E12,1.4884342E12,8.643286E11,2.0041748E11,4.939803E11,2.4366044E12,7.757943E11,7.104228E11,2.330198E11,1.8662975E11,1.05171124E11,1.1529303E11,2.9318303E11,2.895923E11,2.5260196E11,6.973793E11,1.0140472E12,1.16256604E11,2.7201434E11,2.5198723E11,1.7973353E11,1.13699455E11,1.6830222E11,8.06351E10,6.435917E10,2.698104E10,7.411964E10,1.8640478E10,2.1887222E10,2.9274944E11,4.7404188E10,3.1929034E11,1.0245479E11,8.137474E10,9.416465E11,4.5964263E10,6.687722E11,1.9242556E11,1.8431037E11,1.0942834E11,1.189279E11,2.1597448E11,2.96903E11,2.2019918E10,2.2784482E11,6.4066847E10,3.6303536E10,5.307577E10,6.0448276E10,1.4656786E11,7.495483E10,1.4624589E9,5.5454794E10,4.411425E9,1.1565587E9,1.6132866E10,6.860489E10,6.742763E10,0E0,5.955113E9,0E0,0E0,0E0,0E0,0E0,0E0,0E0,0E0,0E0,0E0,0E0,0E0,0E0,0E0,0E0,0E0,0E0,0E0,0E0,0E0,0E0,0E0,0E0,0E0,0E0,0E0,0E0,0E0,0E0,0E0,0E0,0E0,0E0,0E0,0E0,0E0,0E0,0E0,0E0,0E0,0E0,0E0,0E0,0E0,0E0,0E0,0E0,0E0,0E0,0E0,0E0,0E0,0E0,0E0,0E0,0E0,0E0,0E0,0E0,0E0,0E0,0E0],"parents":[2147483647,0,0,1,1,2,2,3,3,4,4,5,5,6,6,7,7,8,8,9,9,10,10,11,11,12,12,13,13,14,14,15,15,16,16,17,17,18,18,19,19,20,20,21,21,22,22,23,23,24,24,25,25,26,26,27,27,28,28,29,29,30,30,31,31,32,32,33,33,34,34,35,35,36,36,37,37,38,38,39,39,40,40,41,41,42,42,43,43,44,44,45,45,46,46,47,47,48,48,49,49,50,50,51,51,52,52,53,53,54,54,55,55,56,56,57,57,58,58,59,59,60,60,62,62],"right_children":[2,4,6,8,10,12,14,16,18,20,22,24,26,28,30,32,34,36,38,40,42,44,46,48,50,52,54,56,58,60,62,64,66,68,70,72,74,76,78,80,82,84,86,88,90,92,94,96,98,100,102,104,106,108,110,112,114,116,118,120,122,-1,124,-1,-1,-1,-1,-1,-1,-1,-1,-1,-1,-1,-1,-1,-1,-1,-1,-1,-1,-1,-1,-1,-1,-1,-1,-1,-1,-1,-1,-1,-1,-1,-1,-1,-1,-1,-1,-1,-1,-1,-1,-1,-1,-1,-1,-1,-1,-1,-1,-1,-1,-1,-1,-1,-1,-1,-1,-1,-1,-1,-1,-1,-1],"split_conditions":[5.5767E0,3.55E0,7.6659E0,1E0,3.9E1,2.8E1,1.9E1,3.4E1,2E0,3.797E1,4.32E2,6.4967E0,4E0,9.2873E0,3.805E1,-1.1842E2,-1.2265E2,2.5083E0,-1.1715E2,-1.1756E2,-1.2239E2,4.075E0,3.795E1,3.795E1,-1.2198E2,1.229E3,-1.1718E2,5.67E2,6.9E1,6.9E1,-1.2197E2,1.321E3,3.389E1,3.864E1,-1.1827E2,3.731E1,1.5E1,3.792E1,3.276E1,-1.2216E2,3.391E1,3.889E1,-1.2128E2,3.4E1,3.375E1,1.054E3,-1.225E2,-1.2202E2,-1.2239E2,3.758E1,3.73E2,-1.1835E2,3.7E1,2.49E2,3.2E1,1E0,-1.181E2,-1.2247E2,3.799E1,3.743E1,-1.1802E2,-2.1696695E4,-1.2126E2,1.104157E4,3.556403E4,-4.5750366E3,-1.2967789E4,-8.093424E3,-1.7728754E4,2.1768582E3,-5.5918403E3,-2.0198809E4,-1.6108918E4,1.6948E4,-1.3751536E4,1.8222496E3,-1.6018745E4,-1.6671084E4,-8.474861E3,2.105727E4,4.0320635E3,-3.3962295E3,-1.3117484E4,3.6977717E3,-2.0139027E4,-1.0769262E4,-2.900636E3,-1.0015505E4,3.6435935E3,3.7302484E4,1.0145247E4,3.8338152E4,1.9413443E4,5.7588223E3,-1.0580346E4,3.0586572E4,1.1071402E4,1.5148901E4,-3.0783525E3,3.5600062E4,2.2526809E4,1.2091094E4,1.9384998E4,1.790108E4,1.8274879E3,2.2250424E4,3.2143133E4,-1.2703687E4,4.059937E4,-4.6105034E3,4.15808E3,2.461352E4,1.0004997E4,3.6557074E4,2.6747375E4,-3.6669658E3,6.6830347E3,3.892294E4,7.2887485E3,-1.980972E3,3.845372E4,4.207666E4,3.198428E4,1.3485228E4,-6.4549736E3],"split_indices":[7,7,7,8,2,2,2,1,8,1,4,7,8,7,1,0,0,7,0,0,0,7,1,1,0,3,0,4,5,5,0,3,1,1,0,1,4,1,1,0,1,1,0,1,1,5,0,0,0,1,4,0,2,3,2,8,0,0,1,1,0,0,0,0,0,0,0,0,0,0,0,0,0,0,0,0,0,0,0,0,0,0,0,0,0,0,0,0,0,0,0,0,0,0,0,0,0,0,0,0,0,0,0,0,0,0,0,0,0,0,0,0,0,0,0,0,0,0,0,0,0,0,0,0,0],"split_type":[0,0,0,0,0,0,0,0,0,0,0,0,0,0,0,0,0,0,0,0,0,0,0,0,0,0,0,0,0,0,0,0,0,0,0,0,0,0,0,0,0,0,0,0,0,0,0,0,0,0,0,0,0,0,0,0,0,0,0,0,0,0,0,0,0,0,0,0,0,0,0,0,0,0,0,0,0,0,0,0,0,0,0,0,0,0,0,0,0,0,0,0,0,0,0,0,0,0,0,0,0,0,0,0,0,0,0,0,0,0,0,0,0,0,0,0,0,0,0,0,0,0,0,0,0],"sum_hessian":[2.0433E4,1.744E4,2.993E3,1.0282E4,7.158E3,2.15E3,8.43E2,3.77E3,6.512E3,5.817E3,1.341E3,1.359E3,7.91E2,2.56E2,5.87E2,1.529E3,2.241E3,4.289E3,2.223E3,4.872E3,9.45E2,8.73E2,4.68E2,8.52E2,5.07E2,6.77E2,1.14E2,1.66E2,9E1,5.78E2,9E0,1.8E1,1.511E3,1.89E2,2.052E3,2.29E3,1.999E3,1.816E3,4.07E2,3.945E3,9.27E2,2.09E2,7.36E2,3.39E2,5.34E2,4.38E2,3E1,7.33E2,1.19E2,9.5E1,4.12E2,9.4E1,5.83E2,1.09E2,5E0,1.08E2,5.8E1,2E0,8.8E1,1.4E1,5.64E2,1E0,8E0,6E0,1.2E1,6.88E2,8.23E2,9.6E1,9.3E1,1.303E3,7.49E2,1.209E3,1.081E3,7E0,1.992E3,1.493E3,3.23E2,3.27E2,8E1,2.19E2,3.726E3,6.76E2,2.51E2,1.75E2,3.4E1,5.02E2,2.34E2,7.2E1,2.67E2,2.7E1,5.07E2,9.7E1,3.41E2,1.1E1,1.9E1,5.8E1,6.75E2,2E1,9.9E1,4.1E1,5.4E1,1.47E2,2.65E2,6.2E1,3.2E1,3.42E2,2.41E2,2E0,1.07E2,2E0,3E0,7E1,3.8E1,3.1E1,2.7E1,1E0,1E0,8.6E1,2E0,8E0,6E0,4.75E2,8.9E1,7E0,1E0],"tree_param":{"num_deleted":"0","num_feature":"9","num_nodes":"125","size_leaf_vector":"1"}},{"base_weights":[6.263775E1,-1.1544187E4,4.728156E4,-2.4443812E4,2.1646367E3,3.398394E4,7.7090945E4,-3.5250957E4,-1.7028691E4,-1.1438473E3,3.813006E4,2.3736846E4,4.9564746E4,6.4608414E4,9.392753E4,-3.890949E4,-1.5587984E4,-1.9308979E4,2.1303324E4,-1.1945402E4,6.274202E3,2.8480287E4,8.349624E4,1.3564909E4,3.8349496E4,4.0168805E4,6.755437E4,5.394482E4,9.097824E4,9.5285945E4,-6.11034E3,-3.0416982E4,-4.585722E4,1.03646086E5,-1.8028639E4,-8.953499E3,-3.0305803E4,8.1585305E4,-1.4246396E2,-3.2005642E3,-2.7805867E4,3.879177E4,-6.473559E2,3.3154816E4,-2.5130605E4,8.92121E4,-1.9069035E4,1.764192E4,-1.9736682E4,7.292388E4,3.0734049E4,3.3194848E4,8.1297914E4,1.1898107E5,5.0595492E4,6.0128164E4,2.780634E4,1.0444779E5,4.82575E4,9.613177E4,1.9565646E4,-1.8442191E4,1.0580745E4,1.0627027E4,-9.708919E3,-1.2252451E4,-1.7846945E4,6.0858297E4,5.3915176E3,-6.1351484E3,1.4493107E4,4.129226E3,-4.9513784E3,-6.6321484E3,-1.5279593E4,-4.263871E3,2.9032756E4,6.666694E3,-6.6251763E3,7.0841254E2,-7.2933555E3,-1.1344151E4,-6.2789775E3,1.8319604E3,1.7153178E4,-4.3684526E3,3.223703E3,-3.9788726E3,1.1335547E4,-4.3817856E3,-2.4053363E4,2.0920512E4,3.835567E4,-7.197905E3,1.5712267E3,3.978536E3,1.5711617E4,-4.569777E3,-2.8355459E4,2.7417627E4,7.0052007E3,2.8757761E3,1.0877478E4,5.920169E3,1.5143642E4,2.5538188E4,-3.6945159E3,4.4880484E4,2.12175E4,5.9551196E3,1.8731693E4,8.65683E3,1.933268E4,1.659677E4,2.3241685E3,-1.6949363E4,3.1757928E4,3.031792E4,8.260233E3,1.5261562E4,2.9273266E4,1.8786938E2,1.3382838E4,-2.8961204E3,8.451012E3],"categories":[],"categories_nodes":[],"categories_segments":[],"categories_sizes":[],"default_left":[0,0,0,0,0,0,0,0,0,0,0,0,0,0,0,0,0,0,0,0,0,0,0,0,0,0,0,0,0,0,0,0,0,0,0,0,0,0,0,0,0,0,0,0,0,0,0,0,0,0,0,0,0,0,0,0,0,0,0,0,0,0,0,0,0,0,0,0,0,0,0,0,0,0,0,0,0,0,0,0,0,0,0,0,0,0,0,0,0,0,0,0,0,0,0,0,0,0,0,0,0,0,0,0,0,0,0,0,0,0,0,0,0,0,0,0,0,0,0,0,0,0,0,0,0],"id":3,"left_children":[1,3,5,7,9,11,13,15,17,19,21,23,25,27,29,31,33,35,37,39,41,43,45,47,49,51,53,55,57,59,61,63,65,67,69,71,73,75,77,79,81,83,85,87,89,91,93,95,97,99,101,103,105,107,109,111,113,115,117,119,121,-1,123,-1,-1,-1,-1,-1,-1,-1,-1,-1,-1,-1,-1,-1,-1,-1,-1,-1,-1,-1,-1,-1,-1,-1,-1,-1,-1,-1,-1,-1,-1,-1,-1,-1,-1,-1,-1,-1,-1,-1,-1,-1,-1,-1,-1,-1,-1,-1,-1,-1,-1,-1,-1,-1,-1,-1,-1,-1,-1,-1,-1,-1,-1],"loss_changes":[1.1199639E13,2.9007374E12,1.5956401E12,6.7663194E11,9.463792E11,4.4426933E11,2.5516415E11,2.4671499E11,4.3867518E11,5.837161E11,2.909301E11,2.4993628E11,1.8423297E11,1.9671024E11,7.21976E10,1.6959773E11,1.5930448E11,5.3871025E11,3.6457972E11,4.1128693E11,9.7211213E11,1.3966872E11,7.0292275E10,1.35440286E11,1.796986E11,2.0640249E11,3.2364862E11,8.1240785E10,1.1292259E11,3.1423201E10,8.043073E9,1.6861299E11,1.0642679E11,8.985614E10,8.6300295E10,4.1861972E11,3.869737E11,1.0906226E11,1.0305035E11,2.2467415E11,7.1738655E10,4.551588E11,5.648203E11,1.1011536E11,2.489983E10,7.4622435E10,9.634529E8,1.3423824E11,3.5273945E10,1.1139147E11,6.600999E10,1.4441539E11,3.868872E10,1.2683877E11,1.0290148E11,5.3993538E10,5.47665E10,4.120471E10,5.3023703E10,2.8670165E10,3.2922708E9,0E0,2.7633175E9,0E0,0E0,0E0,0E0,0E0,0E0,0E0,0E0,0E0,0E0,0E0,0E0,0E0,0E0,0E0,0E0,0E0,0E0,0E0,0E0,0E0,0E0,0E0,0E0,0E0,0E0,0E0,0E0,0E0,0E0,0E0,0E0,0E0,0E0,0E0,0E0,0E0,0E0,0E0,0E0,0E0,0E0,0E0,0E0,0E0,0E0,0E0,0E0,0E0,0E0,0E0,0E0,0E0,0E0,0E0,0E0,0E0,0E0,0E0,0E0,0E0,0E0],"parents":[2147483647,0,0,1,1,2,2,3,3,4,4,5,5,6,6,7,7,8,8,9,9,10,10,11,11,12,12,13,13,14,14,15,15,16,16,17,17,18,18,19,19,20,20,21,21,22,22,23,23,24,24,25,25,26,26,27,27,28,28,29,29,30,30,31,31,32,32,33,33,34,34,35,35,36,36,37,37,38,38,39,39,40,40,41,41,42,42,43,43,44,44,45,45,46,46,47,47,48,48,49,49,50,50,51,51,52,52,53,53,54,54,55,55,56,56,57,57,58,58,59,59,60,60,62,62],"right_children":[2,4,6,8,10,12,14,16,18,20,22,24,26,28,30,32,34,36,38,40,42,44,46,48,50,52,54,56,58,60,62,64,66,68,70,72,74,76,78,80,82,84,86,88,90,92,94,96,98,100,102,104,106,108,110,112,114,116,118,120,122,-1,124,-1,-1,-1,-1,-1,-1,-1,-1,-1,-1,-1,-1,-1,-1,-1,-1,-1,-1,-1,-1,-1,-1,-1,-1,-1,-1,-1,-1,-1,-1,-1,-1,-1,-1,-1,-1,-1,-1,-1,-1,-1,-1,-1,-1,-1,-1,-1,-1,-1,-1,-1,-1,-1,-1,-1,-1,-1,-1,-1,-1,-1,-1],"split_conditions":[5.1314E0,3.183E0,6.9223E0,2.2188E0,4.8E1,2.8E1,8.4352E0,7.14E2,5.2E1,3.94E2,5.51E2,5.59E2,4.28E2,3.4E1,3.799E1,3.445E1,8.964E-1,3.464E1,-1.2239E2,8.94E2,1.159E3,3.792E1,2.268E3,-1.172E2,1.71E3,4E0,1.178E3,-1.1771E2,3.76E1,-1.1706E2,-1.2197E2,-1.1846E2,-1.1986E2,2.115E3,5.1E1,-1.1828E2,-1.2062E2,-1.226E2,3.772E1,3.795E1,3.27E2,2.3E1,6.52E2,8.7E2,3.864E1,7.82E2,4.241E3,4E0,-1.1614E2,-1.177E2,6.95E2,3.7E1,-1.1715E2,3.651E1,5.19E2,2.29E2,3.353E1,6.2E1,-1.2241E2,2.49E2,1.248E3,-1.8442191E4,8.7496E0,1.0627027E4,-9.708919E3,-1.2252451E4,-1.7846945E4,6.0858297E4,5.3915176E3,-6.1351484E3,1.4493107E4,4.129226E3,-4.9513784E3,-6.6321484E3,-1.5279593E4,-4.263871E3,2.9032756E4,6.666694E3,-6.6251763E3,7.0841254E2,-7.2933555E3,-1.1344151E4,-6.2789775E3,1.8319604E3,1.7153178E4,-4.3684526E3,3.223703E3,-3.9788726E3,1.1335547E4,-4.3817856E3,-2.4053363E4,2.0920512E4,3.835567E4,-7.197905E3,1.5712267E3,3.978536E3,1.5711617E4,-4.569777E3,-2.8355459E4,2.7417627E4,7.0052007E3,2.8757761E3,1.0877478E4,5.920169E3,1.5143642E4,2.5538188E4,-3.6945159E3,4.4880484E4,2.12175E4,5.9551196E3,1.8731693E4,8.65683E3,1.933268E4,1.659677E4,2.3241685E3,-1.6949363E4,3.1757928E4,3.031792E4,8.260233E3,1.5261562E4,2.9273266E4,1.8786938E2,1.3382838E4,-2.8961204E3,8.451012E3],"split_indices":[7,7,7,7,2,2,7,4,2,4,6,4,4,2,1,1,7,1,0,5,5,1,5,0,5,8,5,0,1,0,0,0,0,3,2,0,0,0,1,1,4,2,4,3,1,4,3,8,0,0,4,2,0,1,4,4,1,3,0,3,5,0,7,0,0,0,0,0,0,0,0,0,0,0,0,0,0,0,0,0,0,0,0,0,0,0,0,0,0,0,0,0,0,0,0,0,0,0,0,0,0,0,0,0,0,0,0,0,0,0,0,0,0,0,0,0,0,0,0,0,0,0,0,0,0],"split_type":[0,0,0,0,0,0,0,0,0,0,0,0,0,0,0,0,0,0,0,0,0,0,0,0,0,0,0,0,0,0,0,0,0,0,0,0,0,0,0,0,0,0,0,0,0,0,0,0,0,0,0,0,0,0,0,0,0,0,0,0,0,0,0,0,0,0,0,0,0,0,0,0,0,0,0,0,0,0,0,0,0,0,0,0,0,0,0,0,0,0,0,0,0,0,0,0,0,0,0,0,0,0,0,0,0,0,0,0,0,0,0,0,0,0,0,0,0,0,0,0,0,0,0,0,0],"sum_hessian":[2.0433E4,1.6402E4,4.031E3,8.45E3,7.952E3,2.789E3,1.242E3,3.437E3,5.013E3,7.283E3,6.69E2,1.684E3,1.105E3,7.16E2,5.26E2,2.897E3,5.4E2,4.732E3,2.81E2,2.965E3,4.318E3,5.53E2,1.16E2,9.94E2,6.9E2,7.28E2,3.77E2,5.12E2,2.04E2,5.19E2,7E0,1.306E3,1.591E3,1E1,5.3E2,2.438E3,2.294E3,7.3E1,2.08E2,1.912E3,1.053E3,7.57E2,3.561E3,5.09E2,4.4E1,1.1E2,6E0,8.86E2,1.08E2,1.23E2,5.67E2,6.24E2,1.04E2,9.2E1,2.85E2,4.13E2,9.9E1,1.54E2,5E1,5.13E2,6E0,1E0,6E0,3.7E1,1.269E3,1.166E3,4.25E2,4E0,6E0,5.12E2,1.8E1,6.08E2,1.83E3,1.643E3,6.51E2,1E1,6.3E1,1.03E2,1.05E2,1.514E3,3.98E2,4.27E2,6.26E2,2.73E2,4.84E2,1.603E3,1.958E3,4.6E1,4.63E2,3.8E1,6E0,7.5E1,3.5E1,5E0,1E0,7.88E2,9.8E1,1.03E2,5E0,8.9E1,3.4E1,1.18E2,4.49E2,3.52E2,2.72E2,1E2,4E0,5.5E1,3.7E1,8E1,2.05E2,5.1E1,3.62E2,4.1E1,5.8E1,1E0,1.53E2,1.3E1,3.7E1,1.7E1,4.96E2,4E0,2E0,3E0,3E0],"tree_param":{"num_deleted":"0","num_feature":"9","num_nodes":"125","size_leaf_vector":"1"}},{"base_weights":[6.282889E1,-1.3032829E4,2.3106227E4,-3.5798809E3,-1.8945193E4,1.4388777E4,4.8699426E4,6.4910356E3,-1.0556598E4,-2.8680367E4,-1.9820643E3,-2.0665627E3,2.0997318E4,3.2476188E4,5.7401316E4,3.314073E4,-9.931625E3,-1.4209643E4,3.9752263E3,-3.388824E4,-2.385515E4,2.7762367E4,-9.180512E3,9.401446E3,-1.0614773E4,1.2620053E4,3.5817918E4,2.3709676E4,5.233366E4,6.212192E4,3.675052E4,9.430039E4,4.613818E3,1.1161769E4,-1.5314899E4,-2.6597027E4,-5.8185957E3,9.157663E3,-2.6045629E4,-2.2367367E4,-4.899233E4,-1.9648363E4,-4.314883E4,4.764661E4,-4.799764E4,3.0777869E3,-2.8718877E4,3.4781262E3,2.8210281E4,-1.9520707E4,1.1068379E4,2.0641246E4,-4.0645542E3,8.134403E4,2.3686252E4,1.6612537E4,3.394395E4,4.7038418E4,7.453316E4,7.796542E4,5.372897E4,6.9919805E4,1.2891247E4,2.4661281E4,3.7040426E4,-9.212947E3,2.0363396E4,6.8371997E3,-6.1685493E3,-1.2936433E2,-7.087861E3,2.9064502E2,-8.956344E3,2.016585E2,-9.189632E3,1.184676E3,8.677038E3,-3.9115762E3,-1.2616047E4,6.1587695E3,-9.005672E3,-1.3730105E4,-2.3349004E4,-3.7941E3,-7.8051685E3,-1.0554168E4,-1.4403458E4,4.7325684E3,2.0721559E4,-2.8291562E3,-1.6299911E4,6.748649E3,-7.344509E3,-5.392156E3,-1.1987083E4,-4.557907E3,2.4855283E3,1.0722167E4,1.9618555E3,-8.30557E2,-9.894117E3,-3.396399E2,9.561181E3,3.6739128E3,1.5439702E4,-9.201342E3,1.1898314E3,3.3263504E4,1.7296293E4,3.8372996E3,1.6000581E4,8.373932E3,3.2315268E2,2.3977527E4,8.572086E3,1.6551398E4,-9.1237054E2,-5.406155E3,2.3281398E4,2.6001404E4,1.7490027E4,2.016407E4,1.1261739E4,2.755281E4,3.147915E3,6.0397964E3,-1.890327E4],"categories":[],"categories_nodes":[],"categories_segments":[],"categories_sizes":[],"default_left":[0,0,0,0,0,0,0,0,0,0,0,0,0,0,0,0,0,0,0,0,0,0,0,0,0,0,0,0,0,0,0,0,0,0,0,0,0,0,0,0,0,0,0,0,0,0,0,0,0,0,0,0,0,0,0,0,0,0,0,0,0,0,0,0,0,0,0,0,0,0,0,0,0,0,0,0,0,0,0,0,0,0,0,0,0,0,0,0,0,0,0,0,0,0,0,0,0,0,0,0,0,0,0,0,0,0,0,0,0,0,0,0,0,0,0,0,0,0,0,0,0,0,0,0,0,0,0],"id":4,"left_children":[1,3,5,7,9,11,13,15,17,19,21,23,25,27,29,31,33,35,37,39,41,43,45,47,49,51,53,55,57,59,61,63,65,67,69,71,73,75,77,79,81,83,85,87,89,91,93,95,97,99,101,103,105,107,109,111,113,115,117,119,121,123,125,-1,-1,-1,-1,-1,-1,-1,-1,-1,-1,-1,-1,-1,-1,-1,-1,-1,-1,-1,-1,-1,-1,-1,-1,-1,-1,-1,-1,-1,-1,-1,-1,-1,-1,-1,-1,-1,-1,-1,-1,-1,-1,-1,-1,-1,-1,-1,-1,-1,-1,-1,-1,-1,-1,-1,-1,-1,-1,-1,-1,-1,-1,-1,-1],"loss_changes":[6.1666377E12,7.281692E11,1.6514097E12,3.524321E11,1.3236974E12,6.008638E11,2.6368174E11,8.9884276E11,1.573486E11,1.2717418E11,6.263234E11,1.5538083E11,4.8897144E11,1.134784E11,1.1694034E11,1.3656621E12,1.4449494E11,2.459825E11,9.29649E10,4.2471234E11,2.139943E11,8.6095226E11,5.6412766E11,7.532696E10,1.7555875E11,3.3733666E11,7.840069E11,3.2775127E10,2.0121977E10,1.2798709E11,1.8111948E11,7.770132E10,1.19766E12,9.601642E10,1.2530075E11,8.587241E10,2.2759737E11,5.2289843E10,1.7774592E10,4.568489E11,9.484291E10,9.665577E10,1.6638345E10,3.0755953E11,2.8563816E10,7.754364E11,1.0892575E11,4.643771E10,2.6202522E10,1.4511728E11,6.7292488E10,4.3979132E11,1.7511606E11,2.0280574E11,3.6273055E11,4.789737E10,4.38929E10,6.737117E10,1.1916804E10,5.3499134E10,1.4003562E11,1.2410569E11,7.546974E10,0E0,0E0,0E0,0E0,0E0,0E0,0E0,0E0,0E0,0E0,0E0,0E0,0E0,0E0,0E0,0E0,0E0,0E0,0E0,0E0,0E0,0E0,0E0,0E0,0E0,0E0,0E0,0E0,0E0,0E0,0E0,0E0,0E0,0E0,0E0,0E0,0E0,0E0,0E0,0E0,0E0,0E0,0E0,0E0,0E0,0E0,0E0,0E0,0E0,0E0,0E0,0E0,0E0,0E0,0E0,0E0,0E0,0E0,0E0,0E0,0E0,0E0,0E0,0E0],"parents":[2147483647,0,0,1,1,2,2,3,3,4,4,5,5,6,6,7,7,8,8,9,9,10,10,11,11,12,12,13,13,14,14,15,15,16,16,17,17,18,18,19,19,20,20,21,21,22,22,23,23,24,24,25,25,26,26,27,27,28,28,29,29,30,30,31,31,32,32,33,33,34,34,35,35,36,36,37,37,38,38,39,39,40,40,41,41,42,42,43,43,44,44,45,45,46,46,47,47,48,48,49,49,50,50,51,51,52,52,53,53,54,54,55,55,56,56,57,57,58,58,59,59,60,60,61,61,62,62],"right_children":[2,4,6,8,10,12,14,16,18,20,22,24,26,28,30,32,34,36,38,40,42,44,46,48,50,52,54,56,58,60,62,64,66,68,70,72,74,76,78,80,82,84,86,88,90,92,94,96,98,100,102,104,106,108,110,112,114,116,118,120,122,124,126,-1,-1,-1,-1,-1,-1,-1,-1,-1,-1,-1,-1,-1,-1,-1,-1,-1,-1,-1,-1,-1,-1,-1,-1,-1,-1,-1,-1,-1,-1,-1,-1,-1,-1,-1,-1,-1,-1,-1,-1,-1,-1,-1,-1,-1,-1,-1,-1,-1,-1,-1,-1,-1,-1,-1,-1,-1,-1,-1,-1,-1,-1,-1,-1],"split_conditions":[4.125E0,1E0,6.2787E0,-1.183E2,2E0,1.8E1,1.9E1,3.417E1,3.407E1,3.684E1,-1.2239E2,1E0,4.77E2,7.9943E0,-1.1802E2,-1.1837E2,7.65E2,-1.1816E2,-1.1805E2,3.489E1,3.941E1,3.84E1,3.76E1,5.6163E0,2E0,1E3,1.319E3,5.56E2,2E0,3.416E1,3.365E1,3.405E1,3.405E1,3.832E1,-1.2186E2,2.7E1,-1.1756E2,2.991E3,3.41E1,-1.1781E2,3.55E0,2.4E1,1.9E1,3.776E1,4.042E1,-1.1722E2,-1.2223E2,3.32E1,-1.1766E2,-1.2068E2,5.3428E0,3.4E2,1.947E3,3.416E1,8.63E2,1E0,1.545E3,1E0,1.21E2,-1.1833E2,-1.2202E2,-1.1723E2,-1.1764E2,2.4661281E4,3.7040426E4,-9.212947E3,2.0363396E4,6.8371997E3,-6.1685493E3,-1.2936433E2,-7.087861E3,2.9064502E2,-8.956344E3,2.016585E2,-9.189632E3,1.184676E3,8.677038E3,-3.9115762E3,-1.2616047E4,6.1587695E3,-9.005672E3,-1.3730105E4,-2.3349004E4,-3.7941E3,-7.8051685E3,-1.0554168E4,-1.4403458E4,4.7325684E3,2.0721559E4,-2.8291562E3,-1.6299911E4,6.748649E3,-7.344509E3,-5.392156E3,-1.1987083E4,-4.557907E3,2.4855283E3,1.0722167E4,1.9618555E3,-8.30557E2,-9.894117E3,-3.396399E2,9.561181E3,3.6739128E3,1.5439702E4,-9.201342E3,1.1898314E3,3.3263504E4,1.7296293E4,3.8372996E3,1.6000581E4,8.373932E3,3.2315268E2,2.3977527E4,8.572086E3,1.6551398E4,-9.1237054E2,-5.406155E3,2.3281398E4,2.6001404E4,1.7490027E4,2.016407E4,1.1261739E4,2.755281E4,3.147915E3,6.0397964E3,-1.890327E4],"split_indices":[7,8,7,0,8,2,2,1,1,1,0,8,4,7,0,0,5,0,0,1,1,1,1,7,8,5,5,4,8,1,1,1,1,1,0,2,0,3,1,0,7,2,2,1,1,0,0,1,0,0,7,4,3,1,4,8,5,8,3,0,0,0,0,0,0,0,0,0,0,0,0,0,0,0,0,0,0,0,0,0,0,0,0,0,0,0,0,0,0,0,0,0,0,0,0,0,0,0,0,0,0,0,0,0,0,0,0,0,0,0,0,0,0,0,0,0,0,0,0,0,0,0,0,0,0,0,0],"split_type":[0,0,0,0,0,0,0,0,0,0,0,0,0,0,0,0,0,0,0,0,0,0,0,0,0,0,0,0,0,0,0,0,0,0,0,0,0,0,0,0,0,0,0,0,0,0,0,0,0,0,0,0,0,0,0,0,0,0,0,0,0,0,0,0,0,0,0,0,0,0,0,0,0,0,0,0,0,0,0,0,0,0,0,0,0,0,0,0,0,0,0,0,0,0,0,0,0,0,0,0,0,0,0,0,0,0,0,0,0,0,0,0,0,0,0,0,0,0,0,0,0,0,0,0,0,0,0],"sum_hessian":[2.0433E4,1.3029E4,7.404E3,5.014E3,8.015E3,5.524E3,1.88E3,2.052E3,2.962E3,5.092E3,2.923E3,1.583E3,3.941E3,6.58E2,1.222E3,7.82E2,1.27E3,2.367E3,5.95E2,2.446E3,2.646E3,5.69E2,2.354E3,6.76E2,9.07E2,2.519E3,1.422E3,4.58E2,2E2,9.93E2,2.29E2,2.48E2,5.34E2,2.58E2,1.012E3,9.55E2,1.412E3,5.08E2,8.7E1,1.389E3,1.057E3,2.174E3,4.72E2,4.51E2,1.18E2,1.447E3,9.07E2,5.15E2,1.61E2,6.43E2,2.64E2,1.701E3,8.18E2,2.98E2,1.124E3,2.72E2,1.86E2,1.64E2,3.6E1,3.41E2,6.52E2,9.5E1,1.34E2,1.78E2,7E1,3.43E2,1.91E2,1.89E2,6.9E1,3.63E2,6.49E2,1.01E2,8.54E2,1.12E3,2.92E2,4.03E2,1.05E2,4.9E1,3.8E1,2.1E2,1.179E3,9.53E2,1.04E2,1.037E3,1.137E3,1.82E2,2.9E2,1.82E2,2.69E2,1.7E1,1.01E2,8.49E2,5.98E2,4.65E2,4.42E2,1.05E2,4.1E2,1.19E2,4.2E1,2.87E2,3.56E2,1.67E2,9.7E1,1.338E3,3.63E2,1.89E2,6.29E2,1.31E2,1.67E2,8.23E2,3.01E2,1.57E2,1.15E2,1.8E1,1.68E2,1.41E2,2.3E1,1E0,3.5E1,2.34E2,1.07E2,3.54E2,2.98E2,6.9E1,2.6E1,1.23E2,1.1E1],"tree_param":{"num_deleted":"0","num_feature":"9","num_nodes":"127","size_leaf_vector":"1"}},{"base_weights":[5.435427E1,-9.126522E3,1.6209218E4,-1.2779649E4,-1.8360962E2,7.9831284E3,3.0082623E4,-7.0611885E3,-1.934793E4,1.5835944E4,-8.1520757E3,2.9963606E3,2.215791E4,2.3505E4,4.151935E4,-1.1298647E4,1.6082566E4,-2.4178814E4,-1.2395489E4,-1.4381459E2,2.972333E4,-1.7335205E4,4.6620564E1,1.1751353E4,-1.6951197E4,2.6864375E4,-6.991756E3,1.4570486E4,3.3232418E4,4.6064723E4,2.8911703E4,-3.3714568E3,-1.9953818E4,2.6204E4,-7.7664033E3,7.150663E4,-2.4737666E4,5.280915E3,-1.8898254E4,-2.1579663E3,5.149825E4,2.0435781E4,6.275413E4,-9.700396E3,-2.3893143E4,-9.564806E3,1.9618875E4,2.5372617E4,-8.205733E1,1.8101376E2,-2.654856E4,3.136465E4,-3.0926724E3,3.460202E4,-2.4758906E4,2.4638772E3,2.0679475E4,6.957853E4,2.9673143E4,5.1546348E4,2.7192168E4,2.0247533E4,5.525381E4,-3.171012E3,4.6951255E3,-8.180178E3,-3.424712E3,-2.3031423E3,1.0569139E4,2.0864906E2,-7.443209E3,5.3882754E4,4.7605522E3,-5.801331E3,-8.874785E3,-5.190831E3,3.683183E3,-5.781122E3,3.1725564E4,1.0464012E3,-5.0064126E3,5.4084854E3,4.850714E4,1.207451E4,2.142547E3,-6.3575234E3,2.0710875E4,-5.8476226E3,-1.425477E3,3.720937E4,-7.295621E3,-4.7166533E3,8.050918E1,1.1599068E4,-1.1559694E3,2.363929E4,1.8490286E3,-5.788032E3,1.6080867E3,1.7927877E4,-4.20983E3,-3.5491208E3,-1.8539258E4,4.3203297E4,8.830564E3,-3.280342E3,1.842488E4,-6.6305444E2,1.3795657E4,-8.649068E3,1.6172792E3,4.5150522E3,-3.3733862E3,1.9041576E4,4.9942085E3,2.2909412E4,-1.8852028E3,1.0938445E4,-2.4706406E3,1.3678181E4,1.9801254E4,1.6253005E4,4.9720825E3,9.783104E3,3.2327861E3,-9.056054E3,1.7109809E4],"categories":[],"categories_nodes":[],"categories_segments":[],"categories_sizes":[],"default_left":[0,0,0,0,0,0,0,0,0,0,0,0,0,0,0,0,0,0,0,0,0,0,0,0,0,0,0,0,0,0,0,0,0,0,0,0,0,0,0,0,0,0,0,0,0,0,0,0,0,0,0,0,0,0,0,0,0,0,0,0,0,0,0,0,0,0,0,0,0,0,0,0,0,0,0,0,0,0,0,0,0,0,0,0,0,0,0,0,0,0,0,0,0,0,0,0,0,0,0,0,0,0,0,0,0,0,0,0,0,0,0,0,0,0,0,0,0,0,0,0,0,0,0,0,0,0,0],"id":5,"left_children":[1,3,5,7,9,11,13,15,17,19,21,23,25,27,29,31,33,35,37,39,41,43,45,47,49,51,53,55,57,59,61,63,65,67,69,71,73,75,77,79,81,83,85,87,89,91,93,95,97,99,101,103,105,107,109,111,113,115,117,119,121,123,125,-1,-1,-1,-1,-1,-1,-1,-1,-1,-1,-1,-1,-1,-1,-1,-1,-1,-1,-1,-1,-1,-1,-1,-1,-1,-1,-1,-1,-1,-1,-1,-1,-1,-1,-1,-1,-1,-1,-1,-1,-1,-1,-1,-1,-1,-1,-1,-1,-1,-1,-1,-1,-1,-1,-1,-1,-1,-1,-1,-1,-1,-1,-1,-1],"loss_changes":[3.030833E12,4.2568253E11,8.448471E11,3.4733503E11,4.826509E11,3.2862513E11,2.0634848E11,4.853376E11,1.4428996E11,2.7873214E11,1.9010729E11,6.011379E11,1.6618999E11,1.5178164E11,5.6261214E10,2.8686467E11,1.8510502E11,1.3753962E11,2.0320852E11,6.095988E10,2.0487052E11,5.939993E10,2.5132422E11,3.8555904E11,1.7265004E11,1.405742E11,1.2574819E11,6.7621634E10,1.0634389E11,7.484264E10,6.0275786E10,2.992217E11,1.2451224E11,1.6480528E11,3.3045262E10,8.736923E10,6.5487503E10,7.5422155E10,6.197199E10,4.6326727E10,7.822385E10,1.3825447E11,7.898464E10,2.6655707E10,4.3308122E10,5.425387E10,1.9683728E11,1.1407056E12,1.3403835E11,3.209429E11,3.4842123E11,1.9267486E11,6.997523E10,2.147328E10,1.4762631E10,5.3311308E10,1.038501E11,3.857626E10,1.9716283E11,4.6044283E10,4.724025E10,2.3536042E10,1.1752915E10,0E0,0E0,0E0,0E0,0E0,0E0,0E0,0E0,0E0,0E0,0E0,0E0,0E0,0E0,0E0,0E0,0E0,0E0,0E0,0E0,0E0,0E0,0E0,0E0,0E0,0E0,0E0,0E0,0E0,0E0,0E0,0E0,0E0,0E0,0E0,0E0,0E0,0E0,0E0,0E0,0E0,0E0,0E0,0E0,0E0,0E0,0E0,0E0,0E0,0E0,0E0,0E0,0E0,0E0,0E0,0E0,0E0,0E0,0E0,0E0,0E0,0E0,0E0,0E0],"parents":[2147483647,0,0,1,1,2,2,3,3,4,4,5,5,6,6,7,7,8,8,9,9,10,10,11,11,12,12,13,13,14,14,15,15,16,16,17,17,18,18,19,19,20,20,21,21,22,22,23,23,24,24,25,25,26,26,27,27,28,28,29,29,30,30,31,31,32,32,33,33,34,34,35,35,36,36,37,37,38,38,39,39,40,40,41,41,42,42,43,43,44,44,45,45,46,46,47,47,48,48,49,49,50,50,51,51,52,52,53,53,54,54,55,55,56,56,57,57,58,58,59,59,60,60,61,61,62,62],"right_children":[2,4,6,8,10,12,14,16,18,20,22,24,26,28,30,32,34,36,38,40,42,44,46,48,50,52,54,56,58,60,62,64,66,68,70,72,74,76,78,80,82,84,86,88,90,92,94,96,98,100,102,104,106,108,110,112,114,116,118,120,122,124,126,-1,-1,-1,-1,-1,-1,-1,-1,-1,-1,-1,-1,-1,-1,-1,-1,-1,-1,-1,-1,-1,-1,-1,-1,-1,-1,-1,-1,-1,-1,-1,-1,-1,-1,-1,-1,-1,-1,-1,-1,-1,-1,-1,-1,-1,-1,-1,-1,-1,-1,-1,-1,-1,-1,-1,-1,-1,-1,-1,-1,-1,-1,-1,-1],"split_conditions":[4.125E0,6.16E2,5.697E0,1.005E3,1.777E3,2E0,7.3409E0,3.63E2,4.54E2,2.5E1,8.42E2,1E0,3.792E1,2.5E1,-1.1802E2,6.58E2,3.782E1,6.29E2,1.291E3,9.5E2,7.39E2,1E0,2.5E1,-1.1833E2,3.464E1,-1.1724E2,-1.2241E2,3.78E2,-1.2232E2,3.76E1,1.00968E1,2.47E2,2.87E2,2E1,3.876E1,1.2054E0,1E0,2.3971E0,3.384E3,-1.1764E2,3.25E0,1.366E3,2.665E3,-1.1831E2,1.541E3,1.8E1,2.983E3,3.417E1,1.508E3,-1.18E2,-1.2068E2,3.298E1,3.9E1,2.4E1,3.825E1,1E0,1.15E3,3.803E1,3.762E1,2E0,-1.2241E2,3.365E1,1.93E2,-3.171012E3,4.6951255E3,-8.180178E3,-3.424712E3,-2.3031423E3,1.0569139E4,2.0864906E2,-7.443209E3,5.3882754E4,4.7605522E3,-5.801331E3,-8.874785E3,-5.190831E3,3.683183E3,-5.781122E3,3.1725564E4,1.0464012E3,-5.0064126E3,5.4084854E3,4.850714E4,1.207451E4,2.142547E3,-6.3575234E3,2.0710875E4,-5.8476226E3,-1.425477E3,3.720937E4,-7.295621E3,-4.7166533E3,8.050918E1,1.1599068E4,-1.1559694E3,2.363929E4,1.8490286E3,-5.788032E3,1.6080867E3,1.7927877E4,-4.20983E3,-3.5491208E3,-1.8539258E4,4.3203297E4,8.830564E3,-3.280342E3,1.842488E4,-6.6305444E2,1.3795657E4,-8.649068E3,1.6172792E3,4.5150522E3,-3.3733862E3,1.9041576E4,4.9942085E3,2.2909412E4,-1.8852028E3,1.0938445E4,-2.4706406E3,1.3678181E4,1.9801254E4,1.6253005E4,4.9720825E3,9.783104E3,3.2327861E3,-9.056054E3,1.7109809E4],"split_indices":[7,4,7,5,5,8,7,6,6,2,6,8,1,2,0,5,1,3,5,6,6,8,2,0,1,0,0,4,0,1,7,4,6,2,1,7,8,7,5,0,7,5,3,0,3,2,5,1,3,0,0,1,2,2,1,8,5,1,1,8,0,1,3,0,0,0,0,0,0,0,0,0,0,0,0,0,0,0,0,0,0,0,0,0,0,0,0,0,0,0,0,0,0,0,0,0,0,0,0,0,0,0,0,0,0,0,0,0,0,0,0,0,0,0,0,0,0,0,0,0,0,0,0,0,0,0,0],"split_type":[0,0,0,0,0,0,0,0,0,0,0,0,0,0,0,0,0,0,0,0,0,0,0,0,0,0,0,0,0,0,0,0,0,0,0,0,0,0,0,0,0,0,0,0,0,0,0,0,0,0,0,0,0,0,0,0,0,0,0,0,0,0,0,0,0,0,0,0,0,0,0,0,0,0,0,0,0,0,0,0,0,0,0,0,0,0,0,0,0,0,0,0,0,0,0,0,0,0,0,0,0,0,0,0,0,0,0,0,0,0,0,0,0,0,0,0,0,0,0,0,0,0,0,0,0,0,0],"sum_hessian":[2.0433E4,1.3029E4,7.404E3,9.25E3,3.779E3,4.649E3,2.755E3,4.946E3,4.304E3,1.255E3,2.524E3,3.44E3,1.209E3,1.751E3,1.004E3,4.181E3,7.65E2,2.538E3,1.766E3,5.84E2,6.71E2,1.19E3,1.334E3,2.391E3,1.049E3,1.041E3,1.68E2,9.14E2,8.37E2,7.36E2,2.68E2,2.183E3,1.998E3,5.37E2,2.28E2,1.4E1,2.524E3,4.75E2,1.291E3,5.63E2,2.1E1,5.25E2,1.46E2,5.51E2,6.39E2,8.95E2,4.39E2,1.111E3,1.28E3,3.77E2,6.72E2,9.05E2,1.36E2,5E1,1.18E2,3.07E2,6.07E2,7.3E1,7.64E2,5.69E2,1.67E2,2.03E2,6.5E1,1.584E3,5.99E2,1.075E3,9.23E2,1.13E2,4.24E2,1.53E2,7.5E1,4E0,1E1,1.196E3,1.328E3,1.12E2,3.63E2,1.288E3,3E0,4.06E2,1.57E2,1.7E1,4E0,2.1E2,3.15E2,1E1,1.36E2,1.84E2,3.67E2,1E0,6.38E2,5.5E2,3.45E2,2.42E2,1.97E2,2.93E2,8.18E2,2.82E2,9.98E2,7.2E1,3.05E2,4.75E2,1.97E2,1.4E1,8.91E2,1.22E2,1.4E1,1.2E1,3.8E1,1.04E2,1.4E1,1.6E2,1.47E2,5.1E1,5.56E2,6.7E1,6E0,6.48E2,1.16E2,4.06E2,1.63E2,4.6E1,1.21E2,8.7E1,1.16E2,1E0,6.4E1],"tree_param":{"num_deleted":"0","num_feature":"9","num_nodes":"127","size_leaf_vector":"1"}},{"base_weights":[5.6790577E1,-7.4327E3,1.0423756E4,-6.2505493E3,-2.9045328E4,6.8783716E3,2.6340648E4,1.2846477E4,-7.478411E3,-2.4565545E4,-3.6594184E4,9.381018E3,-9.059563E3,2.2030404E4,3.6452473E4,3.556042E4,-1.1069228E4,-5.998971E2,-1.2070503E4,-1.1406825E4,-2.6297016E4,-9.064173E3,-3.822421E4,3.1907973E4,7.0860757E3,8.1258896E3,-1.3993945E4,1.8232344E4,3.6506527E4,-3.472239E3,3.8443027E4,2.5232734E4,7.1714945E4,-1.3782741E4,4.3384098E4,3.461923E4,-1.8575764E3,-1.5139315E4,3.8567844E2,1.2918362E4,-1.5986691E4,-2.36606E4,-3.402095E4,-2.6589482E4,4.139647E4,-3.5686613E4,-1.7047975E4,6.449651E4,2.296799E4,5.430633E2,1.3031811E4,-2.6315144E3,2.79546E4,-4.9654614E3,-2.9783723E4,1.5189305E4,4.028738E4,-3.4970405E3,3.723976E4,-3.3863344E4,4.7565406E4,-2.0270316E4,3.9295547E4,1.3353884E4,2.1397776E3,-8.3287295E3,2.4153754E4,-2.1452021E3,-6.9803135E3,2.4593682E3,1.7589771E4,3.2782125E4,8.849879E3,-1.7266585E2,-6.436017E3,1.5700464E4,-4.652932E3,-2.1910522E3,1.2139951E4,2.5408408E2,7.4334126E3,8.02463E3,-5.3305015E3,-1.1738051E4,-6.530049E3,-4.139922E1,-1.0450725E4,-1.3000028E4,-1.6241868E3,2.5064062E3,1.4887651E4,-8.1397583E3,-1.163258E4,2.8006885E4,1.5304996E4,-7.307322E2,1.2248606E4,2.651819E3,-2.9574414E3,1.0765828E4,1.791439E3,7.306537E2,-9.87063E3,-4.38649E3,1.1924557E4,-3.9349736E3,4.220893E3,-1.7841367E4,-7.826336E3,5.9290425E3,7.4058307E2,-9.399961E3,1.3955177E4,1.1945227E4,-7.284004E3,1.144048E4,1.2508352E3,-2.6879951E4,-3.7387703E3,2.8898793E4,-3.2134727E3,-1.2749892E4,7.060597E3,1.2770099E4,6.3692773E3],"categories":[],"categories_nodes":[],"categories_segments":[],"categories_sizes":[],"default_left":[0,0,0,0,0,0,0,0,0,0,0,0,0,0,0,0,0,0,0,0,0,0,0,0,0,0,0,0,0,0,0,0,0,0,0,0,0,0,0,0,0,0,0,0,0,0,0,0,0,0,0,0,0,0,0,0,0,0,0,0,0,0,0,0,0,0,0,0,0,0,0,0,0,0,0,0,0,0,0,0,0,0,0,0,0,0,0,0,0,0,0,0,0,0,0,0,0,0,0,0,0,0,0,0,0,0,0,0,0,0,0,0,0,0,0,0,0,0,0,0,0,0,0,0,0],"id":6,"left_children":[1,3,5,7,9,11,13,15,17,19,21,23,25,27,29,31,33,35,37,39,41,43,45,47,49,51,53,55,57,59,61,63,65,67,69,71,73,75,77,79,81,83,85,87,89,91,-1,93,95,97,99,101,103,105,107,109,111,113,115,117,119,121,123,-1,-1,-1,-1,-1,-1,-1,-1,-1,-1,-1,-1,-1,-1,-1,-1,-1,-1,-1,-1,-1,-1,-1,-1,-1,-1,-1,-1,-1,-1,-1,-1,-1,-1,-1,-1,-1,-1,-1,-1,-1,-1,-1,-1,-1,-1,-1,-1,-1,-1,-1,-1,-1,-1,-1,-1,-1,-1,-1,-1,-1,-1],"loss_changes":[1.5866406E12,3.0293642E11,4.8349328E11,2.6389181E11,1.9898663E10,2.7973285E11,6.7232334E10,3.6978328E11,3.3389648E11,8.562983E9,9.840099E9,3.1306416E11,8.08429E10,5.9648803E10,3.7088068E10,1.2850443E11,4.9654227E10,1.8756236E11,2.4231844E11,5.442609E9,6.1797335E9,1.3481448E10,8.0740024E9,1.6166958E11,2.1399837E11,4.5507625E10,1.0534484E11,5.7844662E10,6.788612E9,3.72858E10,2.29705E10,9.4952554E10,6.96224E10,1.9774493E10,8.1039053E9,5.257827E10,1.0268759E11,1.2794266E11,3.8676444E11,1.1243191E9,3.5208612E9,6.7343155E9,2.3418307E9,3.6655754E9,6.730015E8,3.9942554E9,0E0,4.192033E10,2.0019393E11,2.2617173E11,4.6482296E11,2.1400214E10,3.824174E10,7.3418826E10,2.7964064E10,4.4580372E10,4.830719E10,5.4677837E9,6.442615E9,1.6775418E10,2.6608159E10,7.81663E9,2.4921833E10,0E0,0E0,0E0,0E0,0E0,0E0,0E0,0E0,0E0,0E0,0E0,0E0,0E0,0E0,0E0,0E0,0E0,0E0,0E0,0E0,0E0,0E0,0E0,0E0,0E0,0E0,0E0,0E0,0E0,0E0,0E0,0E0,0E0,0E0,0E0,0E0,0E0,0E0,0E0,0E0,0E0,0E0,0E0,0E0,0E0,0E0,0E0,0E0,0E0,0E0,0E0,0E0,0E0,0E0,0E0,0E0,0E0,0E0,0E0,0E0,0E0,0E0],"parents":[2147483647,0,0,1,1,2,2,3,3,4,4,5,5,6,6,7,7,8,8,9,9,10,10,11,11,12,12,13,13,14,14,15,15,16,16,17,17,18,18,19,19,20,20,21,21,22,22,23,23,24,24,25,25,26,26,27,27,28,28,29,29,30,30,31,31,32,32,33,33,34,34,35,35,36,36,37,37,38,38,39,39,40,40,41,41,42,42,43,43,44,44,45,45,47,47,48,48,49,49,50,50,51,51,52,52,53,53,54,54,55,55,56,56,57,57,58,58,59,59,60,60,61,61,62,62],"right_children":[2,4,6,8,10,12,14,16,18,20,22,24,26,28,30,32,34,36,38,40,42,44,46,48,50,52,54,56,58,60,62,64,66,68,70,72,74,76,78,80,82,84,86,88,90,92,-1,94,96,98,100,102,104,106,108,110,112,114,116,118,120,122,124,-1,-1,-1,-1,-1,-1,-1,-1,-1,-1,-1,-1,-1,-1,-1,-1,-1,-1,-1,-1,-1,-1,-1,-1,-1,-1,-1,-1,-1,-1,-1,-1,-1,-1,-1,-1,-1,-1,-1,-1,-1,-1,-1,-1,-1,-1,-1,-1,-1,-1,-1,-1,-1,-1,-1,-1,-1,-1,-1,-1,-1,-1],"split_conditions":[3.8681E0,3.941E1,6.5783E0,-1.2239E2,2.7E1,3.795E1,3.4E1,3.801E1,1E0,1.3E1,5.91E2,-1.2224E2,-1.2239E2,9.2873E0,6.9E1,3.779E1,-1.2247E2,-1.2188E2,4E0,1.7642E0,4.077E1,2.95E2,3.2639E0,3.76E1,4.16E2,-1.226E2,2.3E1,4E0,6.9E1,1.0586E1,3.275E1,-1.2243E2,2.4E1,3.876E1,3.832E1,1.871E0,-1.1756E2,4.1E1,3.5E1,1.742E3,1.93E2,1.38E2,1.1346E0,2.2188E0,9E1,3.976E1,-1.7047975E4,4.7098E0,3.775E1,8.66E2,1.297E3,3.889E1,1.8E1,-1.2124E2,1.05E2,1E0,8.28E2,6.2E1,-1.172E2,6.2E1,2.5E1,7.5139E0,3.781E1,1.3353884E4,2.1397776E3,-8.3287295E3,2.4153754E4,-2.1452021E3,-6.9803135E3,2.4593682E3,1.7589771E4,3.2782125E4,8.849879E3,-1.7266585E2,-6.436017E3,1.5700464E4,-4.652932E3,-2.1910522E3,1.2139951E4,2.5408408E2,7.4334126E3,8.02463E3,-5.3305015E3,-1.1738051E4,-6.530049E3,-4.139922E1,-1.0450725E4,-1.3000028E4,-1.6241868E3,2.5064062E3,1.4887651E4,-8.1397583E3,-1.163258E4,2.8006885E4,1.5304996E4,-7.307322E2,1.2248606E4,2.651819E3,-2.9574414E3,1.0765828E4,1.791439E3,7.306537E2,-9.87063E3,-4.38649E3,1.1924557E4,-3.9349736E3,4.220893E3,-1.7841367E4,-7.826336E3,5.9290425E3,7.4058307E2,-9.399961E3,1.3955177E4,1.1945227E4,-7.284004E3,1.144048E4,1.2508352E3,-2.6879951E4,-3.7387703E3,2.8898793E4,-3.2134727E3,-1.2749892E4,7.060597E3,1.2770099E4,6.3692773E3],"split_indices":[7,1,7,0,2,1,2,1,8,2,3,0,0,7,4,1,0,0,8,7,1,5,7,1,4,0,2,8,5,7,1,0,2,1,1,7,0,5,1,3,3,6,7,7,4,1,0,7,1,5,5,1,2,0,6,8,3,3,0,3,6,7,1,0,0,0,0,0,0,0,0,0,0,0,0,0,0,0,0,0,0,0,0,0,0,0,0,0,0,0,0,0,0,0,0,0,0,0,0,0,0,0,0,0,0,0,0,0,0,0,0,0,0,0,0,0,0,0,0,0,0,0,0,0,0],"split_type":[0,0,0,0,0,0,0,0,0,0,0,0,0,0,0,0,0,0,0,0,0,0,0,0,0,0,0,0,0,0,0,0,0,0,0,0,0,0,0,0,0,0,0,0,0,0,0,0,0,0,0,0,0,0,0,0,0,0,0,0,0,0,0,0,0,0,0,0,0,0,0,0,0,0,0,0,0,0,0,0,0,0,0,0,0,0,0,0,0,0,0,0,0,0,0,0,0,0,0,0,0,0,0,0,0,0,0,0,0,0,0,0,0,0,0,0,0,0,0,0,0,0,0,0,0],"sum_hessian":[2.0433E4,1.1863E4,8.57E3,1.1249E4,6.14E2,7.01E3,1.56E3,6.79E2,1.057E4,3.88E2,2.26E2,6.059E3,9.51E2,1.096E3,4.64E2,3.48E2,3.31E2,4.232E3,6.338E3,4.6E1,3.42E2,1.3E1,2.13E2,5.59E2,5.5E3,2.12E2,7.39E2,8.7E2,2.26E2,2.2E1,4.42E2,2.72E2,7.6E1,3.16E2,1.5E1,1.45E2,4.087E3,5.085E3,1.253E3,7E0,3.9E1,2.58E2,8.4E1,1E1,3E0,1.9E2,2.3E1,1.19E2,4.4E2,2.619E3,2.881E3,1.38E2,7.4E1,4.71E2,2.68E2,7.66E2,1.04E2,4E0,2.22E2,1.4E1,8E0,6E0,4.36E2,1.31E2,1.41E2,6E0,7E1,1.87E2,1.29E2,5E0,1E1,8E0,1.37E2,3.837E3,2.5E2,2.7E1,5.058E3,1.052E3,2.01E2,4E0,3E0,1E0,3.8E1,2.6E1,2.32E2,2E0,8.2E1,5E0,5E0,1E0,2E0,5.3E1,1.37E2,3.6E1,8.3E1,1.82E2,2.58E2,1.457E3,1.162E3,6.79E2,2.202E3,1.19E2,1.9E1,1.6E1,5.8E1,3.3E2,1.41E2,2.8E1,2.4E2,5.63E2,2.03E2,8E0,9.6E1,1E0,3E0,2.16E2,6E0,3E0,1.1E1,4E0,4E0,4E0,2E0,3.68E2,6.8E1],"tree_param":{"num_deleted":"0","num_feature":"9","num_nodes":"125","size_leaf_vector":"1"}},{"base_weights":[4.5775463E1,-3.8417627E3,1.050309E4,-1.1568184E4,-1.5235012E3,8.313293E3,2.425906E4,7.6222485E3,-1.2984974E4,-4.9527256E3,3.1847205E3,1.0602038E4,-8.0814355E3,2.7384363E4,-1.6299529E4,5.4817676E4,-3.121159E3,-1.3751556E4,1.3674526E4,-9.397595E2,-1.5070954E4,1.6795541E4,-3.0886616E3,7.007542E4,9.265905E3,3.5719424E2,-2.4124955E4,-8.230547E3,2.9422684E4,3.0719587E3,-2.8354625E4,1.3160734E5,3.922964E4,-6.537943E3,7.713631E4,-1.6315993E4,-9.115805E3,9.11469E4,-4.3079717E3,-5.3343027E3,9.914068E3,-1.1364258E4,-1.8938545E4,-2.5172988E3,2.5840395E4,-9.889413E3,4.0080388E3,8.694439E4,3.043097E4,1.700544E4,3.854648E3,2.0719973E3,-2.421357E4,-1.8876127E4,-5.8929477E4,5.549761E3,-7.201907E4,5.2981766E4,2.566265E4,-9.352259E3,2.2057191E4,-4.5317105E4,-1.8271824E4,-4.0184836E3,4.740207E4,1.5717186E4,-1.1908203E4,-1.1429928E4,-4.9711905E2,5.634909E4,2.6799795E3,6.755186E3,-5.033538E3,-3.0619333E3,3.4839983E3,4.5674008E4,1.0136368E3,-4.276621E3,3.7630073E3,7.5425244E2,-3.254542E3,8.379793E3,1.2967274E2,-2.659587E3,-6.6158633E3,-3.5700764E3,-8.405484E3,3.810654E4,-9.135606E2,5.2243086E3,1.707337E4,-1.7975468E2,-3.8486404E3,6.908114E3,-1.3384873E3,3.4993566E4,1.1714745E4,2.193896E4,-2.6497498E3,1.707059E4,1.5876868E3,3.7281968E3,-3.8078066E3,1.4478585E4,9.110563E0,-1.4504312E3,-8.215392E3,-1.3947918E4,-2.7790611E4,5.1913613E3,-1.0004095E4,-5.24118E3,-2.7103303E4,1.0545615E4,2.4551664E4,1.8523878E1,8.757063E3,-6.367999E3,6.620631E2,1.2652302E4,-7.4141724E2,-1.5676145E4,-7.5464844E3,-1.6015978E3,-1.133907E4],"categories":[],"categories_nodes":[],"categories_segments":[],"categories_sizes":[],"default_left":[0,0,0,0,0,0,0,0,0,0,0,0,0,0,0,0,0,0,0,0,0,0,0,0,0,0,0,0,0,0,0,0,0,0,0,0,0,0,0,0,0,0,0,0,0,0,0,0,0,0,0,0,0,0,0,0,0,0,0,0,0,0,0,0,0,0,0,0,0,0,0,0,0,0,0,0,0,0,0,0,0,0,0,0,0,0,0,0,0,0,0,0,0,0,0,0,0,0,0,0,0,0,0,0,0,0,0,0,0,0,0,0,0,0,0,0,0,0,0,0,0,0,0,0,0],"id":7,"left_children":[1,3,5,7,9,11,13,15,17,19,21,23,25,27,29,31,33,35,37,39,41,43,45,47,49,51,53,55,57,59,61,63,65,67,69,71,73,75,77,79,81,83,85,87,89,91,93,95,97,99,101,103,-1,105,107,109,111,113,115,117,119,121,123,-1,-1,-1,-1,-1,-1,-1,-1,-1,-1,-1,-1,-1,-1,-1,-1,-1,-1,-1,-1,-1,-1,-1,-1,-1,-1,-1,-1,-1,-1,-1,-1,-1,-1,-1,-1,-1,-1,-1,-1,-1,-1,-1,-1,-1,-1,-1,-1,-1,-1,-1,-1,-1,-1,-1,-1,-1,-1,-1,-1,-1,-1],"loss_changes":[8.307481E11,2.6681539E11,1.6661827E11,9.357417E10,1.8504376E11,1.7940981E11,9.6782385E10,1.20339505E11,6.562631E10,2.6923167E11,4.1246566E11,3.326242E11,7.934442E10,5.1493896E10,1.2930985E10,4.7505097E10,5.3703463E10,3.685889E10,1.2577586E11,2.2656886E11,2.6779484E10,2.6628014E11,1.5964504E11,5.888023E10,1.7177058E11,5.3688984E10,3.5789595E10,3.468168E10,5.781376E10,5.395571E9,4.986972E9,2.8912452E10,4.155066E10,2.8744106E10,5.8719404E10,3.6349805E10,2.523603E10,9.065002E10,1.2583242E10,1.4634964E11,2.3388013E11,2.5553428E10,5.8459947E10,3.3689856E10,2.7076133E11,4.6114832E10,2.6089865E11,8.648684E10,4.9264615E10,7.885247E11,3.4287924E11,3.564497E10,0E0,2.1013975E10,6.591791E9,1.5665397E10,5.4189343E9,4.3943985E10,5.2196704E10,1.9684543E9,4.545234E9,3.638661E8,5.606198E9,0E0,0E0,0E0,0E0,0E0,0E0,0E0,0E0,0E0,0E0,0E0,0E0,0E0,0E0,0E0,0E0,0E0,0E0,0E0,0E0,0E0,0E0,0E0,0E0,0E0,0E0,0E0,0E0,0E0,0E0,0E0,0E0,0E0,0E0,0E0,0E0,0E0,0E0,0E0,0E0,0E0,0E0,0E0,0E0,0E0,0E0,0E0,0E0,0E0,0E0,0E0,0E0,0E0,0E0,0E0,0E0,0E0,0E0,0E0,0E0,0E0,0E0],"parents":[2147483647,0,0,1,1,2,2,3,3,4,4,5,5,6,6,7,7,8,8,9,9,10,10,11,11,12,12,13,13,14,14,15,15,16,16,17,17,18,18,19,19,20,20,21,21,22,22,23,23,24,24,25,25,26,26,27,27,28,28,29,29,30,30,31,31,32,32,33,33,34,34,35,35,36,36,37,37,38,38,39,39,40,40,41,41,42,42,43,43,44,44,45,45,46,46,47,47,48,48,49,49,50,50,51,51,53,53,54,54,55,55,56,56,57,57,58,58,59,59,60,60,61,61,62,62],"right_children":[2,4,6,8,10,12,14,16,18,20,22,24,26,28,30,32,34,36,38,40,42,44,46,48,50,52,54,56,58,60,62,64,66,68,70,72,74,76,78,80,82,84,86,88,90,92,94,96,98,100,102,104,-1,106,108,110,112,114,116,118,120,122,124,-1,-1,-1,-1,-1,-1,-1,-1,-1,-1,-1,-1,-1,-1,-1,-1,-1,-1,-1,-1,-1,-1,-1,-1,-1,-1,-1,-1,-1,-1,-1,-1,-1,-1,-1,-1,-1,-1,-1,-1,-1,-1,-1,-1,-1,-1,-1,-1,-1,-1,-1,-1,-1,-1,-1,-1,-1,-1,-1,-1,-1,-1],"split_conditions":[4.625E0,2.2188E0,4E0,2.95E2,5.12E2,-1.177E2,-1.1713E2,1E0,1.191E3,1.117E3,1.555E3,3.364E1,1.7E1,8.28E2,1.6E1,-1.1855E2,1.497E3,1.9556E0,4.001E3,3.54E2,3.412E1,2E1,8.42E2,-1.1775E2,3.419E1,3.453E1,3E1,-1.184E2,6.04E2,3.215E3,9.12E2,1.1346E0,3.417E1,-1.2239E2,1.574E3,8E0,1.008E3,3.502E3,1.718E3,6.11E2,8.72E2,-1.1748E2,-1.2068E2,1.37E2,6.34E2,1.71E3,2.321E3,7.8193E0,3.353E1,-1.1838E2,-1.2155E2,9.6E1,-2.421357E4,-1.1748E2,6.2178E0,2.72E2,4.9083E0,2.2E2,-1.2241E2,-1.1703E2,-1.1701E2,3E1,1.537E3,-4.0184836E3,4.740207E4,1.5717186E4,-1.1908203E4,-1.1429928E4,-4.9711905E2,5.634909E4,2.6799795E3,6.755186E3,-5.033538E3,-3.0619333E3,3.4839983E3,4.5674008E4,1.0136368E3,-4.276621E3,3.7630073E3,7.5425244E2,-3.254542E3,8.379793E3,1.2967274E2,-2.659587E3,-6.6158633E3,-3.5700764E3,-8.405484E3,3.810654E4,-9.135606E2,5.2243086E3,1.707337E4,-1.7975468E2,-3.8486404E3,6.908114E3,-1.3384873E3,3.4993566E4,1.1714745E4,2.193896E4,-2.6497498E3,1.707059E4,1.5876868E3,3.7281968E3,-3.8078066E3,1.4478585E4,9.110563E0,-1.4504312E3,-8.215392E3,-1.3947918E4,-2.7790611E4,5.1913613E3,-1.0004095E4,-5.24118E3,-2.7103303E4,1.0545615E4,2.4551664E4,1.8523878E1,8.757063E3,-6.367999E3,6.620631E2,1.2652302E4,-7.4141724E2,-1.5676145E4,-7.5464844E3,-1.6015978E3,-1.133907E4],"split_indices":[7,7,8,5,4,0,0,8,6,5,5,1,2,3,2,0,3,7,3,4,1,2,4,0,1,1,2,0,5,3,5,7,1,0,3,2,4,5,6,5,5,0,0,5,6,5,5,7,1,0,0,6,0,0,7,5,7,4,0,0,0,2,5,0,0,0,0,0,0,0,0,0,0,0,0,0,0,0,0,0,0,0,0,0,0,0,0,0,0,0,0,0,0,0,0,0,0,0,0,0,0,0,0,0,0,0,0,0,0,0,0,0,0,0,0,0,0,0,0,0,0,0,0,0,0],"split_type":[0,0,0,0,0,0,0,0,0,0,0,0,0,0,0,0,0,0,0,0,0,0,0,0,0,0,0,0,0,0,0,0,0,0,0,0,0,0,0,0,0,0,0,0,0,0,0,0,0,0,0,0,0,0,0,0,0,0,0,0,0,0,0,0,0,0,0,0,0,0,0,0,0,0,0,0,0,0,0,0,0,0,0,0,0,0,0,0,0,0,0,0,0,0,0,0,0,0,0,0,0,0,0,0,0,0,0,0,0,0,0,0,0,0,0,0,0,0,0,0,0,0,0,0,0],"sum_hessian":[2.0433E4,1.4896E4,5.537E3,3.437E3,1.1459E4,4.778E3,7.59E2,2.36E2,3.201E3,6.63E3,4.829E3,4.193E3,5.85E2,7.05E2,5.4E1,4.3E1,1.93E2,3.112E3,8.9E1,4.748E3,1.882E3,1.523E3,3.306E3,9.1E1,4.102E3,3.84E2,2.01E2,3.8E1,6.67E2,2.1E1,3.3E1,6E0,3.7E1,1.86E2,7E0,2.002E3,1.11E3,1.6E1,7.3E1,3.38E3,1.368E3,9.63E2,9.19E2,4.86E2,1.037E3,1.688E3,1.618E3,6.3E1,2.8E1,1.687E3,2.415E3,3.77E2,7E0,1.76E2,2.5E1,3.2E1,6E0,9E1,5.77E2,1.3E1,8E0,1.1E1,2.2E1,1E0,5E0,3.2E1,5E0,2.4E1,1.62E2,2E0,5E0,2.3E1,1.979E3,1.055E3,5.5E1,9E0,7E0,4.6E1,2.7E1,1.395E3,1.985E3,4.71E2,8.97E2,7.82E2,1.81E2,5.19E2,4E2,1E0,4.85E2,8.17E2,2.2E2,4.06E2,1.282E3,4.98E2,1.12E3,3.8E1,2.5E1,1.3E1,1.5E1,3.82E2,1.305E3,1.591E3,8.24E2,1.5E1,3.62E2,6.7E1,1.09E2,2E1,5E0,2.5E1,7E0,2E0,4E0,5.7E1,3.3E1,7E1,5.07E2,6E0,7E0,4E0,4E0,7E0,4E0,1.4E1,8E0],"tree_param":{"num_deleted":"0","num_feature":"9","num_nodes":"125","size_leaf_vector":"1"}},{"base_weights":[4.127328E1,-4.3567812E3,5.0798213E3,-3.290996E3,-1.6471822E4,6.719795E3,-6.0255786E3,2.5926597E3,-7.3560356E3,-1.33473125E4,-3.2392248E4,1.0657069E4,-1.2939725E3,5.6215615E3,-9.591447E3,4.447176E4,2.9709985E2,-3.81421E3,-1.4317357E4,-2.2226414E4,-1.1198136E4,1.8789432E4,-3.349473E4,2.0908465E4,5.099622E3,7.8222266E3,-9.485634E3,-1.4207096E3,3.2405871E4,-3.354211E3,-2.286558E4,5.555954E4,1.0795538E4,-3.250275E3,8.711474E3,4.729336E3,-1.0560243E4,1.1479417E4,-1.5638307E4,-2.5519762E4,3.684266E3,-8.221364E3,-2.2602752E4,-2.7408193E4,-4.6566527E4,4.2495273E4,8.0203193E3,1.3861385E4,-1.1212963E4,3.2777496E4,-1.6532591E2,-8.449287E3,-5.4853234E4,2.6617751E3,-2.8589918E4,2.1188845E3,4.533556E4,-8.820889E3,6.4290874E3,-4.9617043E4,-2.0038084E4,1.312516E4,3.4421594E4,2.0877033E4,1.0127657E3,-3.338882E3,1.2518422E3,4.8364834E3,-5.1557476E3,7.4877056E3,6.820775E1,-3.652296E3,1.8244954E3,2.0968744E4,1.6530686E3,-2.0765989E3,-5.6679824E3,5.90287E2,-8.849891E3,1.8360973E4,-1.1207618E3,-3.89228E3,9.04768E2,1.3694948E4,-7.9479165E3,-1.788944E4,-7.415104E3,-4.336886E3,-1.456904E4,1.5906165E4,5.389881E3,-1.5205247E3,1.1424521E4,7.4258257E3,3.1434556E3,2.0394984E3,-1.1966896E4,2.1687762E4,4.1102744E3,2.8980034E3,-3.1890603E3,1.0568817E4,-2.8079192E3,-1.10176045E4,-2.007372E4,5.597793E3,-1.6612286E3,-7.064225E3,-1.6643795E4,7.1520874E3,-1.1557071E4,1.869493E3,1.5135436E4,-1.7697032E3,-7.5519263E3,2.229738E3,-1.2062742E4,-1.1303593E4,-2.6133426E4,4.7599087E3,-6.9744907E3],"categories":[],"categories_nodes":[],"categories_segments":[],"categories_sizes":[],"default_left":[0,0,0,0,0,0,0,0,0,0,0,0,0,0,0,0,0,0,0,0,0,0,0,0,0,0,0,0,0,0,0,0,0,0,0,0,0,0,0,0,0,0,0,0,0,0,0,0,0,0,0,0,0,0,0,0,0,0,0,0,0,0,0,0,0,0,0,0,0,0,0,0,0,0,0,0,0,0,0,0,0,0,0,0,0,0,0,0,0,0,0,0,0,0,0,0,0,0,0,0,0,0,0,0,0,0,0,0,0,0,0,0,0,0,0,0,0,0,0,0,0],"id":8,"left_children":[1,3,5,7,9,11,13,15,17,19,21,23,25,27,29,31,33,35,37,39,41,-1,43,45,47,49,51,53,55,57,59,61,63,65,67,69,71,73,75,77,79,81,83,85,87,89,91,93,95,97,99,101,103,105,107,109,111,113,115,117,119,-1,-1,-1,-1,-1,-1,-1,-1,-1,-1,-1,-1,-1,-1,-1,-1,-1,-1,-1,-1,-1,-1,-1,-1,-1,-1,-1,-1,-1,-1,-1,-1,-1,-1,-1,-1,-1,-1,-1,-1,-1,-1,-1,-1,-1,-1,-1,-1,-1,-1,-1,-1,-1,-1,-1,-1,-1,-1,-1,-1],"loss_changes":[4.5283567E11,1.4082895E11,1.7349694E11,2.3990952E11,4.344144E10,2.6186714E11,5.097236E10,3.940482E11,1.4620354E11,1.3853254E10,1.7183556E10,3.169403E11,2.0431528E11,5.436928E10,7.7666796E10,7.893323E10,1.1605113E11,2.2672856E11,6.8331995E10,1.2296626E10,2.008168E10,0E0,1.0101064E10,5.4384558E11,5.1612192E11,2.5813973E11,6.72874E10,2.5476295E10,2.3400022E10,3.428528E10,2.1697675E10,1.06795565E11,2.3321776E10,1.6001363E11,2.2154071E11,1.5809801E11,5.9115176E10,3.3787306E10,5.385981E10,1.3951377E10,7.4842266E9,2.5408684E10,3.386875E10,7.19795E9,2.1193277E9,1.877731E11,4.8258227E11,8.629581E10,6.5209945E11,2.3570645E11,1.0107283E11,5.640114E10,4.5380403E9,2.6336735E10,2.761298E9,1.7691828E10,8.0877486E9,1.948872E10,1.1061814E10,9.251193E9,3.183512E10,0E0,0E0,0E0,0E0,0E0,0E0,0E0,0E0,0E0,0E0,0E0,0E0,0E0,0E0,0E0,0E0,0E0,0E0,0E0,0E0,0E0,0E0,0E0,0E0,0E0,0E0,0E0,0E0,0E0,0E0,0E0,0E0,0E0,0E0,0E0,0E0,0E0,0E0,0E0,0E0,0E0,0E0,0E0,0E0,0E0,0E0,0E0,0E0,0E0,0E0,0E0,0E0,0E0,0E0,0E0,0E0,0E0,0E0,0E0,0E0],"parents":[2147483647,0,0,1,1,2,2,3,3,4,4,5,5,6,6,7,7,8,8,9,9,10,10,11,11,12,12,13,13,14,14,15,15,16,16,17,17,18,18,19,19,20,20,22,22,23,23,24,24,25,25,26,26,27,27,28,28,29,29,30,30,31,31,32,32,33,33,34,34,35,35,36,36,37,37,38,38,39,39,40,40,41,41,42,42,43,43,44,44,45,45,46,46,47,47,48,48,49,49,50,50,51,51,52,52,53,53,54,54,55,55,56,56,57,57,58,58,59,59,60,60],"right_children":[2,4,6,8,10,12,14,16,18,20,22,24,26,28,30,32,34,36,38,40,42,-1,44,46,48,50,52,54,56,58,60,62,64,66,68,70,72,74,76,78,80,82,84,86,88,90,92,94,96,98,100,102,104,106,108,110,112,114,116,118,120,-1,-1,-1,-1,-1,-1,-1,-1,-1,-1,-1,-1,-1,-1,-1,-1,-1,-1,-1,-1,-1,-1,-1,-1,-1,-1,-1,-1,-1,-1,-1,-1,-1,-1,-1,-1,-1,-1,-1,-1,-1,-1,-1,-1,-1,-1,-1,-1,-1,-1,-1,-1,-1,-1,-1,-1,-1,-1,-1,-1],"split_conditions":[3.662E0,-1.1712E2,3.793E1,3.418E1,-1.1614E2,-1.1802E2,-1.2239E2,-1.1837E2,-1.2062E2,-1.1709E2,1.5E1,3.419E1,3.372E1,-1.2254E2,2.6E1,3.409E1,3.406E1,3.79E1,2.95E2,3.298E1,3.385E1,1.8789432E4,2.3669E0,-1.1836E2,-1.2128E2,-1.1771E2,3.453E1,3.87E1,4.2273E0,-1.2129E2,1.05E2,3.405E1,1.178E3,-1.1816E2,-1.1764E2,-1.223E2,-1.2121E2,9E0,3.464E1,3.261E1,8.964E-1,-1.1694E2,-1.1706E2,2.49E2,3.276E1,6.7371E0,3.405E1,-1.223E2,3.464E1,3.364E1,-1.1715E2,6.8E1,4.1406E0,3.52E2,3.4E1,2.948E3,1.7E1,3.866E1,3.941E1,3.889E1,1.82E2,1.312516E4,3.4421594E4,2.0877033E4,1.0127657E3,-3.338882E3,1.2518422E3,4.8364834E3,-5.1557476E3,7.4877056E3,6.820775E1,-3.652296E3,1.8244954E3,2.0968744E4,1.6530686E3,-2.0765989E3,-5.6679824E3,5.90287E2,-8.849891E3,1.8360973E4,-1.1207618E3,-3.89228E3,9.04768E2,1.3694948E4,-7.9479165E3,-1.788944E4,-7.415104E3,-4.336886E3,-1.456904E4,1.5906165E4,5.389881E3,-1.5205247E3,1.1424521E4,7.4258257E3,3.1434556E3,2.0394984E3,-1.1966896E4,2.1687762E4,4.1102744E3,2.8980034E3,-3.1890603E3,1.0568817E4,-2.8079192E3,-1.10176045E4,-2.007372E4,5.597793E3,-1.6612286E3,-7.064225E3,-1.6643795E4,7.1520874E3,-1.1557071E4,1.869493E3,1.5135436E4,-1.7697032E3,-7.5519263E3,2.229738E3,-1.2062742E4,-1.1303593E4,-2.6133426E4,4.7599087E3,-6.9744907E3],"split_indices":[7,0,1,1,0,0,0,0,0,0,4,1,1,0,2,1,1,1,5,1,1,0,7,0,0,0,1,1,7,0,6,1,3,0,0,0,0,2,1,1,7,0,0,3,1,7,1,0,1,1,0,6,7,4,2,3,2,1,1,1,6,0,0,0,0,0,0,0,0,0,0,0,0,0,0,0,0,0,0,0,0,0,0,0,0,0,0,0,0,0,0,0,0,0,0,0,0,0,0,0,0,0,0,0,0,0,0,0,0,0,0,0,0,0,0,0,0,0,0,0,0],"split_type":[0,0,0,0,0,0,0,0,0,0,0,0,0,0,0,0,0,0,0,0,0,0,0,0,0,0,0,0,0,0,0,0,0,0,0,0,0,0,0,0,0,0,0,0,0,0,0,0,0,0,0,0,0,0,0,0,0,0,0,0,0,0,0,0,0,0,0,0,0,0,0,0,0,0,0,0,0,0,0,0,0,0,0,0,0,0,0,0,0,0,0,0,0,0,0,0,0,0,0,0,0,0,0,0,0,0,0,0,0,0,0,0,0,0,0,0,0,0,0,0,0],"sum_hessian":[2.0433E4,1.091E4,9.523E3,1.0029E4,8.81E2,8.298E3,1.225E3,4.098E3,5.931E3,7.38E2,1.43E2,5.564E3,2.734E3,2.87E2,9.38E2,2.12E2,3.886E3,3.932E3,1.999E3,1.42E2,5.96E2,1E0,1.42E2,1.955E3,3.609E3,1.294E3,1.44E3,2.28E2,5.9E1,6.39E2,2.99E2,1.59E2,5.3E1,2.734E3,1.152E3,1.735E3,2.197E3,9.7E1,1.902E3,1.26E2,1.6E1,4.74E2,1.22E2,9.9E1,4.3E1,7.3E2,1.225E3,2.348E3,1.261E3,3.13E2,9.81E2,1.409E3,3.1E1,1.99E2,2.9E1,1.8E1,4.1E1,4.1E2,2.29E2,2.7E1,2.72E2,1.34E2,2.5E1,5E0,4.8E1,1.326E3,1.408E3,8.96E2,2.56E2,3.15E2,1.42E3,2.003E3,1.94E2,8E0,8.9E1,5.18E2,1.384E3,1.6E1,1.1E2,1E0,1.5E1,3.33E2,1.41E2,6E0,1.16E2,6E0,9.3E1,3E0,4E1,5.1E2,2.2E2,8.54E2,3.71E2,5.55E2,1.793E3,7.75E2,4.86E2,1.01E2,2.12E2,5.06E2,4.75E2,2.8E1,1.381E3,1.4E1,1.7E1,6.7E1,1.32E2,2.6E1,3E0,1.2E1,6E0,5E0,3.6E1,3.49E2,6.1E1,2.25E2,4E0,2.2E1,5E0,2.2E1,2.5E2],"tree_param":{"num_deleted":"0","num_feature":"9","num_nodes":"121","size_leaf_vector":"1"}},{"base_weights":[3.0946447E1,-1.2961292E3,8.543769E3,-3.7043904E3,2.363638E3,1.1242565E4,3.8378305E2,5.472481E2,-8.421252E3,1.7819893E4,-4.7733612E1,1.9430902E4,7.491748E3,1.3849363E3,-4.7770492E4,-5.7641685E3,8.297189E3,-1.0964668E4,-4.7211304E3,5.6948726E3,3.0973945E4,-5.568694E3,3.5856804E3,1.5290815E4,3.7966797E4,1.495332E4,-1.7794504E3,7.185057E3,-4.629645E3,-5.970122E4,1.5875911E4,8.320035E2,-1.1597122E4,1.845661E4,5.2952594E2,2.1065107E4,-1.1383401E4,-2.0781302E2,-1.4452437E4,-6.254473E3,1.181657E4,3.798378E4,-7.374652E3,-8.8952576E2,-1.1826389E4,1.7301182E4,-1.8318976E3,4.205959E3,2.1469184E4,5.50676E4,1.5955104E4,2.9743121E4,5.994938E3,9.099377E3,-1.2249866E4,2.386598E4,3.847086E3,1.0644669E3,-2.1656201E4,3.154887E3,-6.704066E4,6.368897E3,7.752633E2,-6.7290875E2,7.863124E3,-5.062136E3,-2.062329E2,1.2434364E4,3.0360132E3,-4.2082333E2,1.0771142E4,4.212292E4,1.0242045E3,-4.2269106E3,-1.7577264E3,3.0424796E2,-3.4139695E3,-4.421805E3,1.0735187E4,-6.4296704E3,-1.0681101E2,1.6476853E3,6.8473896E3,1.2652369E4,-5.0415806E3,-6.793094E3,1.1122079E3,-1.3689116E3,2.0137626E3,-5.1825527E3,-2.206334E3,-1.8518094E3,7.1108604E3,-1.9389955E3,1.6576273E3,-6.4386206E2,8.08301E3,1.1248094E4,4.11293E3,2.7926287E4,6.8256743E3,8.439971E3,1.9215106E3,1.1266791E4,2.9445388E3,7.3076655E3,-5.0217984E2,1.7663297E4,7.7914465E2,-7.2577637E2,-2.8006057E4,2.6097791E4,4.8369526E3,2.179769E3,-5.8348086E3,-1.1621215E3,8.575933E3,-7.1905244E3,2.519179E4,-8.433736E3,-2.177033E4],"categories":[],"categories_nodes":[],"categories_segments":[],"categories_sizes":[],"default_left":[0,0,0,0,0,0,0,0,0,0,0,0,0,0,0,0,0,0,0,0,0,0,0,0,0,0,0,0,0,0,0,0,0,0,0,0,0,0,0,0,0,0,0,0,0,0,0,0,0,0,0,0,0,0,0,0,0,0,0,0,0,0,0,0,0,0,0,0,0,0,0,0,0,0,0,0,0,0,0,0,0,0,0,0,0,0,0,0,0,0,0,0,0,0,0,0,0,0,0,0,0,0,0,0,0,0,0,0,0,0,0,0,0,0,0,0,0,0,0,0,0],"id":9,"left_children":[1,3,5,7,9,11,13,15,17,19,21,23,25,27,29,31,33,35,37,39,41,43,45,47,49,51,53,55,57,59,61,63,65,67,69,71,73,75,77,79,81,83,85,87,89,91,93,95,97,99,101,103,105,107,109,111,113,115,117,-1,119,-1,-1,-1,-1,-1,-1,-1,-1,-1,-1,-1,-1,-1,-1,-1,-1,-1,-1,-1,-1,-1,-1,-1,-1,-1,-1,-1,-1,-1,-1,-1,-1,-1,-1,-1,-1,-1,-1,-1,-1,-1,-1,-1,-1,-1,-1,-1,-1,-1,-1,-1,-1,-1,-1,-1,-1,-1,-1,-1,-1],"loss_changes":[2.3085723E11,1.5582572E11,6.068871E10,2.138446E11,2.6152986E11,6.3460966E10,3.3138086E10,2.7440146E11,4.752058E10,1.5086361E11,1.21803825E11,4.9300586E10,9.839733E10,2.351107E10,1.1578683E10,1.18974865E11,1.9869804E11,4.040858E10,9.0517094E10,3.6210147E10,1.2232321E11,7.055621E10,2.7213583E11,3.6412908E10,4.3538678E10,1.0422593E11,7.244168E10,1.9006577E10,3.2113873E10,6.8893E9,1.586192E8,1.1337204E11,9.445538E10,2.0869061E11,9.765799E10,8.16766E10,4.4125913E10,1.9247184E10,9.939427E9,1.503258E10,2.2639768E10,8.887861E10,1.209794E10,3.8568915E10,2.4994972E10,1.559788E11,8.951628E10,2.7788724E10,4.201041E10,7.897163E10,5.9838095E9,4.587261E10,6.9329486E10,1.0083204E11,2.5809889E11,2.6457713E10,2.299976E10,3.3952115E10,2.2284308E10,0E0,3.2670515E8,0E0,0E0,0E0,0E0,0E0,0E0,0E0,0E0,0E0,0E0,0E0,0E0,0E0,0E0,0E0,0E0,0E0,0E0,0E0,0E0,0E0,0E0,0E0,0E0,0E0,0E0,0E0,0E0,0E0,0E0,0E0,0E0,0E0,0E0,0E0,0E0,0E0,0E0,0E0,0E0,0E0,0E0,0E0,0E0,0E0,0E0,0E0,0E0,0E0,0E0,0E0,0E0,0E0,0E0,0E0,0E0,0E0,0E0,0E0,0E0],"parents":[2147483647,0,0,1,1,2,2,3,3,4,4,5,5,6,6,7,7,8,8,9,9,10,10,11,11,12,12,13,13,14,14,15,15,16,16,17,17,18,18,19,19,20,20,21,21,22,22,23,23,24,24,25,25,26,26,27,27,28,28,29,29,30,30,31,31,32,32,33,33,34,34,35,35,36,36,37,37,38,38,39,39,40,40,41,41,42,42,43,43,44,44,45,45,46,46,47,47,48,48,49,49,50,50,51,51,52,52,53,53,54,54,55,55,56,56,57,57,58,58,60,60],"right_children":[2,4,6,8,10,12,14,16,18,20,22,24,26,28,30,32,34,36,38,40,42,44,46,48,50,52,54,56,58,60,62,64,66,68,70,72,74,76,78,80,82,84,86,88,90,92,94,96,98,100,102,104,106,108,110,112,114,116,118,-1,120,-1,-1,-1,-1,-1,-1,-1,-1,-1,-1,-1,-1,-1,-1,-1,-1,-1,-1,-1,-1,-1,-1,-1,-1,-1,-1,-1,-1,-1,-1,-1,-1,-1,-1,-1,-1,-1,-1,-1,-1,-1,-1,-1,-1,-1,-1,-1,-1,-1,-1,-1,-1,-1,-1,-1,-1,-1,-1,-1,-1],"split_conditions":[5.697E0,5.12E2,-1.1793E2,9.12E2,1.255E3,3.416E1,3.416E1,2.69E2,2.037E3,2.7E1,7.02E2,6.61E2,-1.2192E2,3.365E1,4.89E3,4.96E2,3.453E1,6.99E2,1.336E3,2.436E3,3.797E1,1.737E3,1.956E3,3.388E1,7.3409E0,3.751E1,3.464E1,-1.1771E2,2.5E1,7.82E2,-1.1756E2,1.92E2,1.241E3,6.84E2,4.14E2,1.2054E0,-1.1816E2,-1.1736E2,3.513E3,8.83E2,1.9E1,-1.1715E2,4.89E2,3.8681E0,-1.1831E2,1.6E1,1.096E3,1E0,3.5E1,-1.183E2,8.7496E0,-1.2201E2,-1.2239E2,-1.1928E2,-1.1986E2,6.1624E0,3.36E1,3.406E1,-1.1713E2,3.154887E3,8E0,6.368897E3,7.752633E2,-6.7290875E2,7.863124E3,-5.062136E3,-2.062329E2,1.2434364E4,3.0360132E3,-4.2082333E2,1.0771142E4,4.212292E4,1.0242045E3,-4.2269106E3,-1.7577264E3,3.0424796E2,-3.4139695E3,-4.421805E3,1.0735187E4,-6.4296704E3,-1.0681101E2,1.6476853E3,6.8473896E3,1.2652369E4,-5.0415806E3,-6.793094E3,1.1122079E3,-1.3689116E3,2.0137626E3,-5.1825527E3,-2.206334E3,-1.8518094E3,7.1108604E3,-1.9389955E3,1.6576273E3,-6.4386206E2,8.08301E3,1.1248094E4,4.11293E3,2.7926287E4,6.8256743E3,8.439971E3,1.9215106E3,1.1266791E4,2.9445388E3,7.3076655E3,-5.0217984E2,1.7663297E4,7.7914465E2,-7.2577637E2,-2.8006057E4,2.6097791E4,4.8369526E3,2.179769E3,-5.8348086E3,-1.1621215E3,8.575933E3,-7.1905244E3,2.519179E4,-8.433736E3,-2.177033E4],"split_indices":[7,4,0,5,5,1,1,4,3,2,4,4,0,1,3,5,1,3,5,3,1,5,5,1,7,1,1,0,2,3,0,6,3,5,6,7,0,0,3,5,2,0,6,7,0,2,6,8,2,0,7,0,0,0,0,7,1,1,0,0,2,0,0,0,0,0,0,0,0,0,0,0,0,0,0,0,0,0,0,0,0,0,0,0,0,0,0,0,0,0,0,0,0,0,0,0,0,0,0,0,0,0,0,0,0,0,0,0,0,0,0,0,0,0,0,0,0,0,0,0,0],"split_type":[0,0,0,0,0,0,0,0,0,0,0,0,0,0,0,0,0,0,0,0,0,0,0,0,0,0,0,0,0,0,0,0,0,0,0,0,0,0,0,0,0,0,0,0,0,0,0,0,0,0,0,0,0,0,0,0,0,0,0,0,0,0,0,0,0,0,0,0,0,0,0,0,0,0,0,0,0,0,0,0,0,0,0,0,0,0,0,0,0,0,0,0,0,0,0,0,0,0,0,0,0,0,0,0,0,0,0,0,0,0,0,0,0,0,0,0,0,0,0,0,0],"sum_hessian":[2.0433E4,1.7678E4,2.755E3,1.0662E4,7.016E3,2.07E3,6.85E2,5.608E3,5.054E3,9.46E2,6.07E3,6.49E2,1.421E3,6.72E2,1.3E1,3.091E3,2.517E3,2.994E3,2.06E3,4.93E2,4.53E2,2.409E3,3.661E3,5.32E2,1.17E2,7.87E2,6.34E2,3.42E2,3.3E2,1.1E1,2E0,1.451E3,1.64E3,1.09E3,1.427E3,3.8E1,2.956E3,1.408E3,6.52E2,1.67E2,3.26E2,3.83E2,7E1,1.379E3,1.03E3,1.036E3,2.625E3,1.91E2,3.41E2,6.5E1,5.2E1,2.96E2,4.91E2,3.11E2,3.23E2,5.6E1,2.86E2,2.48E2,8.2E1,1E0,1E1,1E0,1E0,1.295E3,1.56E2,1.105E3,5.35E2,2.89E2,8.01E2,1.354E3,7.3E1,4E0,3.4E1,1.983E3,9.73E2,1.27E3,1.38E2,6.49E2,3E0,4.6E1,1.21E2,2.08E2,1.18E2,3.56E2,2.7E1,2.9E1,4.1E1,9.3E2,4.49E2,4.63E2,5.67E2,2.22E2,8.14E2,1.611E3,1.014E3,1.5E2,4.1E1,1.1E2,2.31E2,2.9E1,3.6E1,2.2E1,3E1,2.12E2,8.4E1,1.44E2,3.47E2,3.5E1,2.76E2,2.89E2,3.4E1,5E0,5.1E1,2.5E2,3.6E1,2.11E2,3.7E1,8.1E1,1E0,2E0,8E0],"tree_param":{"num_deleted":"0","num_feature":"9","num_nodes":"121","size_leaf_vector":"1"}},{"base_weights":[3.0552267E1,1.2204016E3,-7.457186E3,5.469092E3,-2.4017585E3,-3.9140967E3,-1.6444176E4,5.6759535E4,4.4040195E3,8.5802124E2,-1.5137187E4,1.1651028E4,-6.5754663E3,-5.867199E3,-2.0788943E4,2.2439343E2,7.36738E4,4.738442E4,3.8505327E3,1.2642437E4,-3.5685073E3,-8.9816875E3,-2.9070385E4,6.877077E4,-7.87457E3,-4.7341855E3,-2.7295514E4,-1.7655938E3,-2.197425E4,9.1830125E4,-2.1356148E4,6.1593297E4,-1.0612013E4,6.033683E4,9.509125E4,1.5410766E5,3.7797504E4,1.6374567E3,1.3052188E4,2.9120375E4,5.079211E3,4.729944E3,-6.409241E3,-1.1500754E4,7.206293E3,-2.3073846E4,-4.890501E4,9.985568E4,3.9075086E4,-1.2392901E4,2.6315781E4,-8.804441E3,4.88862E3,-2.0017834E4,-6.344641E4,1.5931813E4,-5.0026772E3,-1.2935243E4,-1.5094528E4,-4.8714844E3,4.6195043E4,-1.260295E4,-2.7619674E4,2.3254195E4,5.950385E3,2.352221E4,-5.5877866E3,2.9914326E4,1.5817329E4,1.7778592E4,3.6525293E4,5.3831152E4,-3.4798408E3,2.505676E4,8.625478E3,8.21424E2,-4.472006E3,8.589779E3,1.1626632E3,-5.207278E3,1.03447E4,5.144984E3,1.3302855E2,5.4350903E3,-2.1414268E3,-7.845851E1,-4.3640693E3,-3.208902E3,-1.2182296E4,3.109617E4,1.6676394E3,-6.4654326E3,-2.8989107E4,-1.2767711E4,-2.3552574E4,3.435802E4,6.814394E3,3.2331653E3,1.52453545E4,3.9657268E3,-6.764753E3,-5.4445244E3,1.0567532E4,-3.330699E3,1.5333962E3,8.825119E3,2.637966E2,1.6071952E4,-6.331413E3,-6.490019E3,-1.9919531E4,6.40936E3,-4.3254404E3,2.3609133E3,-2.1428523E3,1.0664259E4,-5.701201E3,-3.3604636E3,-1.0177508E4,-7.7461333E3,-1.7061627E4],"categories":[],"categories_nodes":[],"categories_segments":[],"categories_sizes":[],"default_left":[0,0,0,0,0,0,0,0,0,0,0,0,0,0,0,0,0,0,0,0,0,0,0,0,0,0,0,0,0,0,0,0,0,0,0,0,0,0,0,0,0,0,0,0,0,0,0,0,0,0,0,0,0,0,0,0,0,0,0,0,0,0,0,0,0,0,0,0,0,0,0,0,0,0,0,0,0,0,0,0,0,0,0,0,0,0,0,0,0,0,0,0,0,0,0,0,0,0,0,0,0,0,0,0,0,0,0,0,0,0,0,0,0,0,0,0,0,0,0,0,0],"id":10,"left_children":[1,3,5,7,9,11,13,15,17,19,21,23,25,27,29,31,33,35,37,39,41,43,45,47,49,51,53,55,57,59,61,63,65,67,69,71,73,75,77,79,81,83,85,87,89,91,93,95,97,99,101,103,105,107,109,111,113,-1,115,-1,-1,117,119,-1,-1,-1,-1,-1,-1,-1,-1,-1,-1,-1,-1,-1,-1,-1,-1,-1,-1,-1,-1,-1,-1,-1,-1,-1,-1,-1,-1,-1,-1,-1,-1,-1,-1,-1,-1,-1,-1,-1,-1,-1,-1,-1,-1,-1,-1,-1,-1,-1,-1,-1,-1,-1,-1,-1,-1,-1,-1],"loss_changes":[1.8206133E11,2.7137507E11,8.915611E10,4.430567E11,3.9519132E11,8.338138E10,3.6274012E10,1.5776468E11,1.8896454E11,3.954486E11,1.6612449E11,3.284389E11,6.5414922E10,1.528823E10,3.7796823E10,2.6589346E10,3.0539252E10,9.751296E10,1.5985613E11,2.5782868E11,1.2994495E11,5.501163E10,6.952141E10,6.5329693E10,3.431246E10,6.1888184E10,3.5563192E10,1.0735267E10,6.1857567E9,2.2650866E10,3.0299554E10,2.451501E9,2.571588E10,1.9023004E10,3.7679137E10,3.565963E10,3.6479295E10,1.15302924E11,2.1749829E11,1.6283605E11,7.945177E10,2.2351127E11,2.0541106E11,2.6866385E10,2.8343054E10,4.9205625E10,2.2396076E10,3.814123E10,1.2744139E10,5.1021955E10,1.0939075E10,3.5551044E10,4.6194794E10,1.056877E10,1.402536E9,5.089634E9,4.408957E9,0E0,8.0009503E9,0E0,0E0,6.6419917E9,1.5636873E10,0E0,0E0,0E0,0E0,0E0,0E0,0E0,0E0,0E0,0E0,0E0,0E0,0E0,0E0,0E0,0E0,0E0,0E0,0E0,0E0,0E0,0E0,0E0,0E0,0E0,0E0,0E0,0E0,0E0,0E0,0E0,0E0,0E0,0E0,0E0,0E0,0E0,0E0,0E0,0E0,0E0,0E0,0E0,0E0,0E0,0E0,0E0,0E0,0E0,0E0,0E0,0E0,0E0,0E0,0E0,0E0,0E0,0E0],"parents":[2147483647,0,0,1,1,2,2,3,3,4,4,5,5,6,6,7,7,8,8,9,9,10,10,11,11,12,12,13,13,14,14,15,15,16,16,17,17,18,18,19,19,20,20,21,21,22,22,23,23,24,24,25,25,26,26,27,27,28,28,29,29,30,30,31,31,32,32,33,33,34,34,35,35,36,36,37,37,38,38,39,39,40,40,41,41,42,42,43,43,44,44,45,45,46,46,47,47,48,48,49,49,50,50,51,51,52,52,53,53,54,54,55,55,56,56,58,58,61,61,62,62],"right_children":[2,4,6,8,10,12,14,16,18,20,22,24,26,28,30,32,34,36,38,40,42,44,46,48,50,52,54,56,58,60,62,64,66,68,70,72,74,76,78,80,82,84,86,88,90,92,94,96,98,100,102,104,106,108,110,112,114,-1,116,-1,-1,118,120,-1,-1,-1,-1,-1,-1,-1,-1,-1,-1,-1,-1,-1,-1,-1,-1,-1,-1,-1,-1,-1,-1,-1,-1,-1,-1,-1,-1,-1,-1,-1,-1,-1,-1,-1,-1,-1,-1,-1,-1,-1,-1,-1,-1,-1,-1,-1,-1,-1,-1,-1,-1,-1,-1,-1,-1,-1,-1],"split_conditions":[-1.1748E2,3.453E1,3.391E1,-1.1932E2,-1.2062E2,-1.1724E2,2.3496E0,-1.1979E2,3.353E1,3.76E1,3.3816E0,3.298E1,-1.1614E2,-1.1689E2,4.1E1,2.1444E0,-1.1969E2,2.7431E0,7.33E2,-1.2202E2,-1.2241E2,3.748E1,2.5E1,-1.1725E2,3.376E1,3.298E1,3.5341E0,1.6E1,1.4205E0,-1.1708E2,1.8E1,3.443E1,-1.1999E2,2.7E2,1.843E3,-1.1764E2,-1.1771E2,3.424E1,2.321E3,3.725E1,9E2,3.801E1,3.3E1,2E0,1.4E1,7.8193E0,3.8E1,7.0544E0,3.276E1,3.312E1,1.178E3,3.8E1,6.04E2,1.5E1,3.277E1,3.453E1,-1.1736E2,-1.2935243E4,5.7E1,-4.8714844E3,4.6195043E4,-1.1662E2,4.6E1,2.3254195E4,5.950385E3,2.352221E4,-5.5877866E3,2.9914326E4,1.5817329E4,1.7778592E4,3.6525293E4,5.3831152E4,-3.4798408E3,2.505676E4,8.625478E3,8.21424E2,-4.472006E3,8.589779E3,1.1626632E3,-5.207278E3,1.03447E4,5.144984E3,1.3302855E2,5.4350903E3,-2.1414268E3,-7.845851E1,-4.3640693E3,-3.208902E3,-1.2182296E4,3.109617E4,1.6676394E3,-6.4654326E3,-2.8989107E4,-1.2767711E4,-2.3552574E4,3.435802E4,6.814394E3,3.2331653E3,1.52453545E4,3.9657268E3,-6.764753E3,-5.4445244E3,1.0567532E4,-3.330699E3,1.5333962E3,8.825119E3,2.637966E2,1.6071952E4,-6.331413E3,-6.490019E3,-1.9919531E4,6.40936E3,-4.3254404E3,2.3609133E3,-2.1428523E3,1.0664259E4,-5.701201E3,-3.3604636E3,-1.0177508E4,-7.7461333E3,-1.7061627E4],"split_indices":[0,1,1,0,0,0,7,0,1,1,7,1,0,0,5,7,0,7,4,0,0,1,2,0,1,1,7,2,7,0,2,1,0,6,3,0,0,1,5,1,5,1,2,8,6,7,2,7,1,1,3,2,5,4,1,1,0,0,6,0,0,0,2,0,0,0,0,0,0,0,0,0,0,0,0,0,0,0,0,0,0,0,0,0,0,0,0,0,0,0,0,0,0,0,0,0,0,0,0,0,0,0,0,0,0,0,0,0,0,0,0,0,0,0,0,0,0,0,0,0,0],"split_type":[0,0,0,0,0,0,0,0,0,0,0,0,0,0,0,0,0,0,0,0,0,0,0,0,0,0,0,0,0,0,0,0,0,0,0,0,0,0,0,0,0,0,0,0,0,0,0,0,0,0,0,0,0,0,0,0,0,0,0,0,0,0,0,0,0,0,0,0,0,0,0,0,0,0,0,0,0,0,0,0,0,0,0,0,0,0,0,0,0,0,0,0,0,0,0,0,0,0,0,0,0,0,0,0,0,0,0,0,0,0,0,0,0,0,0,0,0,0,0,0,0],"sum_hessian":[2.0433E4,1.7632E4,2.801E3,8.114E3,9.518E3,2.01E3,7.91E2,1.64E2,7.95E3,7.579E3,1.939E3,2.93E2,1.717E3,2.31E2,5.6E2,3.8E1,1.26E2,1E2,7.85E3,2.069E3,5.51E3,1.346E3,5.93E2,7.4E1,2.19E2,1.578E3,1.39E2,1.85E2,4.6E1,2E0,5.58E2,5E0,3.3E1,8E1,4.6E1,7E0,9.3E1,6.329E3,1.521E3,6.5E2,1.419E3,1.405E3,4.105E3,1.165E3,1.81E2,4.57E2,1.36E2,3.5E1,3.9E1,1.94E2,2.5E1,1.109E3,4.69E2,1.17E2,2.2E1,2.8E1,1.57E2,1E1,3.6E1,1E0,1E0,2.34E2,3.24E2,3E0,2E0,2E0,3.1E1,1.1E1,6.9E1,2.1E1,2.5E1,6E0,1E0,1.4E1,7.9E1,5.935E3,3.94E2,5.63E2,9.58E2,6.7E1,5.83E2,3.93E2,1.026E3,6.6E2,7.45E2,2.339E3,1.766E3,1.135E3,3E1,2E0,1.79E2,4.49E2,8E0,1.14E2,2.2E1,2.9E1,6E0,1.2E1,2.7E1,5.5E1,1.39E2,4E0,2.1E1,9.52E2,1.57E2,6.5E1,4.04E2,1E0,1.16E2,2E0,2E1,2.4E1,4E0,2.2E1,1.35E2,2E0,3.4E1,2.21E2,1.3E1,3.07E2,1.7E1],"tree_param":{"num_deleted":"0","num_feature":"9","num_nodes":"121","size_leaf_vector":"1"}},{"base_weights":[3.3232666E1,4.7737692E2,-1.2093428E4,1.4018854E3,-5.3063354E3,-8.555263E3,-1.6957902E4,1.7838084E4,8.862057E2,-2.7833086E3,-1.2393801E4,1.2302965E4,-9.465667E3,-1.5493636E4,-1.6321128E4,7.739838E3,7.131366E4,-8.5858234E2,4.177619E3,4.2876777E3,-6.19393E3,-7.446495E3,-1.814553E4,2.0285486E4,-3.1389253E3,-4.1803695E4,-8.704888E3,1.1448699E4,-1.7522127E4,2.8792193E4,-4.2100264E3,9.258074E4,5.1292275E3,1.8459932E3,-4.9725264E3,1.2264886E4,1.6317003E3,-7.550053E3,1.618488E4,4.0919854E3,-9.332253E3,-4.8279253E3,-1.8959215E4,-9.429125E3,-2.6442625E4,-6.3623486E3,2.598559E4,2.0739446E3,-8.542385E3,-4.7579734E4,-4.3175103E3,-7.4148594E3,-1.7662744E4,-2.4330007E3,4.3290773E4,-1.4923352E4,-2.6168352E4,1.2649803E4,1.3064938E3,8.466577E3,-5.569613E3,3.415989E4,1.265633E4,5.1972437E3,-1.6381915E3,-5.8298804E2,1.928804E3,1.28361875E4,-1.5486251E3,2.6723335E3,9.542721E3,-1.1313192E3,1.6765013E3,2.7140291E4,-2.8972275E3,6.4760483E3,-7.236421E3,5.0668845E2,1.3919682E4,-4.331192E3,-1.4145013E3,3.926579E4,-1.7030908E3,-6.179104E3,4.0869424E3,-1.2499712E3,-4.9385254E3,-9.234331E3,-4.3855312E3,1.1122651E4,3.169424E3,8.45059E2,-3.6259238E3,-1.550893E4,-3.4319346E3,-6.459136E2,-2.8256306E3,-4.534163E3,-1.0023193E4,1.0711658E4,-3.191369E3,3.667451E3,1.4871343E4,-3.625297E3,-6.3253804E3,-2.969945E3,-8.388333E3],"categories":[],"categories_nodes":[],"categories_segments":[],"categories_sizes":[],"default_left":[0,0,0,0,0,0,0,0,0,0,0,0,0,0,0,0,0,0,0,0,0,0,0,0,0,0,0,0,0,0,0,0,0,0,0,0,0,0,0,0,0,0,0,0,0,0,0,0,0,0,0,0,0,0,0,0,0,0,0,0,0,0,0,0,0,0,0,0,0,0,0,0,0,0,0,0,0,0,0,0,0,0,0,0,0,0,0,0,0,0,0,0,0,0,0,0,0,0,0,0,0,0,0,0,0,0,0],"id":11,"left_children":[1,3,5,7,9,11,13,15,17,19,21,23,25,-1,27,29,31,33,35,37,39,41,43,45,47,49,51,53,55,57,59,61,63,65,67,69,71,73,75,77,79,81,83,85,87,-1,89,-1,91,93,-1,95,97,99,101,103,105,-1,-1,-1,-1,-1,-1,-1,-1,-1,-1,-1,-1,-1,-1,-1,-1,-1,-1,-1,-1,-1,-1,-1,-1,-1,-1,-1,-1,-1,-1,-1,-1,-1,-1,-1,-1,-1,-1,-1,-1,-1,-1,-1,-1,-1,-1,-1,-1,-1,-1],"loss_changes":[1.1006302E11,1.0541465E11,1.2281487E10,1.4404757E11,4.8550527E10,8.0920084E9,5.8498007E9,2.7863292E11,9.465099E10,4.838005E10,2.0153688E10,2.2824481E9,9.550758E9,0E0,1.0172711E10,1.09806944E11,1.14944246E11,1.1986353E11,1.1754615E11,9.2088025E10,4.3713745E10,1.1515007E10,2.3544218E10,3.389293E9,4.3926653E8,7.402424E8,4.4336067E9,5.8516137E9,6.0582543E9,5.145374E10,1.30418524E11,6.1700047E10,2.8065938E9,1.1290214E11,3.8905233E10,8.940814E10,9.28818E10,6.8625277E10,7.1501455E10,3.214932E10,2.4375362E10,3.703956E10,4.0693903E9,5.926962E9,8.1682596E9,0E0,1.4894807E9,0E0,2.3533325E8,4.5004493E8,0E0,3.6385567E9,1.4618624E9,3.509058E9,1.7442355E8,3.645911E9,1.6189481E9,0E0,0E0,0E0,0E0,0E0,0E0,0E0,0E0,0E0,0E0,0E0,0E0,0E0,0E0,0E0,0E0,0E0,0E0,0E0,0E0,0E0,0E0,0E0,0E0,0E0,0E0,0E0,0E0,0E0,0E0,0E0,0E0,0E0,0E0,0E0,0E0,0E0,0E0,0E0,0E0,0E0,0E0,0E0,0E0,0E0,0E0,0E0,0E0,0E0,0E0],"parents":[2147483647,0,0,1,1,2,2,3,3,4,4,5,5,6,6,7,7,8,8,9,9,10,10,11,11,12,12,14,14,15,15,16,16,17,17,18,18,19,19,20,20,21,21,22,22,23,23,24,24,25,25,26,26,27,27,28,28,29,29,30,30,31,31,32,32,33,33,34,34,35,35,36,36,37,37,38,38,39,39,40,40,41,41,42,42,43,43,44,44,46,46,48,48,49,49,51,51,52,52,53,53,54,54,55,55,56,56],"right_children":[2,4,6,8,10,12,14,16,18,20,22,24,26,-1,28,30,32,34,36,38,40,42,44,46,48,50,52,54,56,58,60,62,64,66,68,70,72,74,76,78,80,82,84,86,88,-1,90,-1,92,94,-1,96,98,100,102,104,106,-1,-1,-1,-1,-1,-1,-1,-1,-1,-1,-1,-1,-1,-1,-1,-1,-1,-1,-1,-1,-1,-1,-1,-1,-1,-1,-1,-1,-1,-1,-1,-1,-1,-1,-1,-1,-1,-1,-1,-1,-1,-1,-1,-1,-1,-1,-1,-1,-1,-1],"split_conditions":[3.926E1,-1.1742E2,2.5E1,3.369E1,3.391E1,9E0,1.93E2,2.9E1,2.618E3,-1.1715E2,3.1071E0,3.976E1,3.96E2,-1.5493636E4,5.91E2,-1.1781E2,6.0774E0,1.024E3,1.456E3,2.1E1,1.5E1,-1.1689E2,1.8E1,4.1E1,4.35E2,5.7E1,4.097E1,2.95E2,2.8333E0,6.0336E0,3.353E1,1.103E3,7.3409E0,2.82E2,8.964E-1,6.25E2,3.753E3,9.6E1,3.32E1,7.0544E0,2.05E3,4.1E1,3.8E1,1.879E3,5.37E2,-6.3623486E3,1.878E3,2.0739446E3,-1.2236E2,4.042E1,-4.3175103E3,2.0921E0,-1.2146E2,2.49E2,9E1,-1.218E2,2.09E2,1.2649803E4,1.3064938E3,8.466577E3,-5.569613E3,3.415989E4,1.265633E4,5.1972437E3,-1.6381915E3,-5.8298804E2,1.928804E3,1.28361875E4,-1.5486251E3,2.6723335E3,9.542721E3,-1.1313192E3,1.6765013E3,2.7140291E4,-2.8972275E3,6.4760483E3,-7.236421E3,5.0668845E2,1.3919682E4,-4.331192E3,-1.4145013E3,3.926579E4,-1.7030908E3,-6.179104E3,4.0869424E3,-1.2499712E3,-4.9385254E3,-9.234331E3,-4.3855312E3,1.1122651E4,3.169424E3,8.45059E2,-3.6259238E3,-1.550893E4,-3.4319346E3,-6.459136E2,-2.8256306E3,-4.534163E3,-1.0023193E4,1.0711658E4,-3.191369E3,3.667451E3,1.4871343E4,-3.625297E3,-6.3253804E3,-2.969945E3,-8.388333E3],"split_indices":[1,0,2,1,1,2,3,2,3,0,7,1,3,0,3,0,7,5,5,2,2,0,2,5,4,6,1,5,7,7,1,5,7,4,7,6,3,6,1,7,3,5,2,5,6,0,3,0,0,1,0,7,0,3,4,0,4,0,0,0,0,0,0,0,0,0,0,0,0,0,0,0,0,0,0,0,0,0,0,0,0,0,0,0,0,0,0,0,0,0,0,0,0,0,0,0,0,0,0,0,0,0,0,0,0,0,0],"split_type":[0,0,0,0,0,0,0,0,0,0,0,0,0,0,0,0,0,0,0,0,0,0,0,0,0,0,0,0,0,0,0,0,0,0,0,0,0,0,0,0,0,0,0,0,0,0,0,0,0,0,0,0,0,0,0,0,0,0,0,0,0,0,0,0,0,0,0,0,0,0,0,0,0,0,0,0,0,0,0,0,0,0,0,0,0,0,0,0,0,0,0,0,0,0,0,0,0,0,0,0,0,0,0,0,0,0,0],"sum_hessian":[2.0433E4,1.9712E4,7.21E2,1.6996E4,2.716E3,4.19E2,3.02E2,5.16E2,1.648E4,2.004E3,7.12E2,1.7E1,4.02E2,4E0,2.98E2,4.35E2,8.1E1,1.0771E4,5.709E3,6.52E2,1.352E3,3.84E2,3.28E2,1.1E1,6E0,8E0,3.94E2,1.2E1,2.86E2,1.57E2,2.78E2,6.1E1,2E1,6.499E3,4.272E3,1.366E3,4.343E3,3.27E2,3.25E2,3.16E2,1.036E3,3.14E2,7E1,1.61E2,1.67E2,1E0,1E1,2E0,4E0,6E0,2E0,3.46E2,4.8E1,9E0,3E0,2.22E2,6.4E1,1.01E2,5.6E1,8.5E1,1.93E2,4.2E1,1.9E1,9E0,1.1E1,3.558E3,2.941E3,1.6E1,4.256E3,1.167E3,1.99E2,1.836E3,2.507E3,6E0,3.21E2,2.87E2,3.8E1,3E2,1.6E1,4.91E2,5.45E2,1E0,3.13E2,6.7E1,3E0,9.3E1,6.8E1,1.21E2,4.6E1,5E0,5E0,1E0,3E0,5E0,1E0,9.6E1,2.5E2,4.3E1,5E0,1E0,8E0,1E0,2E0,1.54E2,6.8E1,7E0,5.7E1],"tree_param":{"num_deleted":"0","num_feature":"9","num_nodes":"107","size_leaf_vector":"1"}},{"base_weights":[2.7942944E1,2.138223E3,-1.7310996E3,2.9726312E4,-4.4079746E1,4.3906668E2,-6.343587E3,3.6548117E4,1.8651663E3,-2.5285415E3,8.162985E3,8.4327E3,-2.563521E3,-7.964563E2,-1.1087961E4,4.1938613E4,6.7558022E3,4.9289703E4,4.13929E2,1.1369401E3,-9.457712E3,1.7161492E4,-4.8448257E3,2.3323764E4,4.375468E3,3.078245E3,-4.7561846E3,3.802077E4,-5.681253E3,-5.602096E3,-2.0613818E4,3.1789498E4,7.754685E4,-2.1458496E4,2.0991922E4,2.2045781E3,1.8246164E4,3.7793726E3,-1.02211875E4,3.0659379E4,-8.991197E2,-3.4260363E4,-4.213819E3,1.2412782E4,4.9534047E4,-6.217284E3,2.4330305E4,-3.2404709E4,2.5623738E4,8.535428E3,-1.6394537E4,7.5423315E3,-1.0275827E4,-1.2035454E4,-8.15168E2,8.062149E3,5.140328E4,-9.583453E3,2.8395906E3,-4.915628E3,-4.279117E4,2.8591042E3,-2.313593E4,2.2014547E4,7.4198813E3,2.8088498E4,1.1832831E4,-1.1360699E4,7.90581E3,1.7351871E4,4.1386743E3,9.383569E3,5.1400006E2,-1.0964713E4,-4.162279E2,1.2586935E4,1.9408079E3,-5.6988086E3,1.3078197E2,-4.814559E3,-1.5912221E4,-3.643182E3,-9.3345604E1,1.0059166E4,1.331528E3,1.8670773E4,5.7563105E3,-4.921802E3,-1.0845978E3,9.052601E3,-1.559154E4,1.8307695E3,-1.430539E4,9.471058E3,7.2755817E2,5.7607695E3,2.4157022E1,-8.243326E3,1.2632751E3,-3.1822832E3,4.0960396E3,-2.2727654E3,-6.162647E3,-7.0092964E3,-1.8631562E3,1.0755681E3,-1.6990656E3,-1.8203271E4,4.283292E3,7.6788555E3,1.743457E4,-6.7316797E2,-6.206503E3,6.5405806E3,-2.5367349E3,-1.9422706E3,1.7864781E3,-9.726614E3,-1.9511553E4,7.573194E3,-7.6184224E3,-8.215072E3,-1.4140961E3],"categories":[],"categories_nodes":[],"categories_segments":[],"categories_sizes":[],"default_left":[0,0,0,0,0,0,0,0,0,0,0,0,0,0,0,0,0,0,0,0,0,0,0,0,0,0,0,0,0,0,0,0,0,0,0,0,0,0,0,0,0,0,0,0,0,0,0,0,0,0,0,0,0,0,0,0,0,0,0,0,0,0,0,0,0,0,0,0,0,0,0,0,0,0,0,0,0,0,0,0,0,0,0,0,0,0,0,0,0,0,0,0,0,0,0,0,0,0,0,0,0,0,0,0,0,0,0,0,0,0,0,0,0,0,0,0,0,0,0,0,0,0,0],"id":12,"left_children":[1,3,5,7,9,11,13,15,17,19,21,23,25,27,29,31,33,35,37,39,41,43,45,47,49,51,53,55,57,59,61,63,65,67,69,-1,-1,71,73,75,77,79,81,83,85,87,89,91,93,95,97,99,101,103,105,107,109,111,113,115,117,119,121,-1,-1,-1,-1,-1,-1,-1,-1,-1,-1,-1,-1,-1,-1,-1,-1,-1,-1,-1,-1,-1,-1,-1,-1,-1,-1,-1,-1,-1,-1,-1,-1,-1,-1,-1,-1,-1,-1,-1,-1,-1,-1,-1,-1,-1,-1,-1,-1,-1,-1,-1,-1,-1,-1,-1,-1,-1,-1,-1,-1],"loss_changes":[7.585618E10,5.593109E11,1.1156273E11,1.2936498E11,1.7557973E11,1.8195363E11,9.383995E10,8.756232E10,9.270871E9,1.6789647E11,2.3430192E11,1.249601E11,6.8188443E10,3.1213145E11,1.0032357E11,1.6485935E11,3.459173E10,1.4875187E9,4.763158E9,2.5994083E11,2.9730845E11,1.8124521E11,3.2945385E10,5.7611403E10,1.4080305E11,9.2061475E10,1.1385175E11,7.3355166E10,4.863877E10,3.0960706E10,4.1625453E10,1.0443158E11,5.8809516E10,2.375152E10,1.4316663E10,0E0,0E0,5.6846633E9,7.391659E9,7.597267E10,9.776146E10,1.3561679E11,5.8458157E10,1.7380901E11,5.700957E10,2.069851E10,1.8069821E10,1.088198E10,5.868975E10,1.2238577E11,6.2233625E10,1.2847545E11,1.0571436E10,9.184482E10,5.4978757E10,2.564689E10,2.0510867E10,8.1703076E10,9.871025E10,2.0370072E10,2.966397E9,4.428072E10,4.948227E10,0E0,0E0,0E0,0E0,0E0,0E0,0E0,0E0,0E0,0E0,0E0,0E0,0E0,0E0,0E0,0E0,0E0,0E0,0E0,0E0,0E0,0E0,0E0,0E0,0E0,0E0,0E0,0E0,0E0,0E0,0E0,0E0,0E0,0E0,0E0,0E0,0E0,0E0,0E0,0E0,0E0,0E0,0E0,0E0,0E0,0E0,0E0,0E0,0E0,0E0,0E0,0E0,0E0,0E0,0E0,0E0,0E0,0E0,0E0,0E0],"parents":[2147483647,0,0,1,1,2,2,3,3,4,4,5,5,6,6,7,7,8,8,9,9,10,10,11,11,12,12,13,13,14,14,15,15,16,16,17,17,18,18,19,19,20,20,21,21,22,22,23,23,24,24,25,25,26,26,27,27,28,28,29,29,30,30,31,31,32,32,33,33,34,34,37,37,38,38,39,39,40,40,41,41,42,42,43,43,44,44,45,45,46,46,47,47,48,48,49,49,50,50,51,51,52,52,53,53,54,54,55,55,56,56,57,57,58,58,59,59,60,60,61,61,62,62],"right_children":[2,4,6,8,10,12,14,16,18,20,22,24,26,28,30,32,34,36,38,40,42,44,46,48,50,52,54,56,58,60,62,64,66,68,70,-1,-1,72,74,76,78,80,82,84,86,88,90,92,94,96,98,100,102,104,106,108,110,112,114,116,118,120,122,-1,-1,-1,-1,-1,-1,-1,-1,-1,-1,-1,-1,-1,-1,-1,-1,-1,-1,-1,-1,-1,-1,-1,-1,-1,-1,-1,-1,-1,-1,-1,-1,-1,-1,-1,-1,-1,-1,-1,-1,-1,-1,-1,-1,-1,-1,-1,-1,-1,-1,-1,-1,-1,-1,-1,-1,-1,-1,-1,-1],"split_conditions":[3.417E1,-1.1838E2,-1.2062E2,7.8193E0,3.405E1,3.76E1,3.464E1,3.415E1,8E0,3.389E1,-1.1798E2,-1.2208E2,-1.2239E2,-1.1932E2,3.0938E0,3.405E1,-1.1852E2,3.376E1,3.413E1,-1.1828E2,-1.183E2,1E0,6.2787E0,3.721E1,3.74E1,3.876E1,-1.2207E2,-1.1979E2,-1.1834E2,2E0,1E0,-1.1847E2,5.9196E0,2.298E3,-1.1846E2,2.2045781E3,1.8246164E4,-1.1863E2,-1.1875E2,3.386E1,-1.1816E2,3.125E0,3.394E1,-1.183E2,-1.1801E2,1E0,3.4E1,3.709E1,7.6659E0,-1.219E2,-1.2183E2,3.775E1,3.1719E0,3.78E1,2.5E1,-1.2043E2,2.6033E0,-1.1849E2,-1.1818E2,3.758E1,3.47E1,1.8E1,3.734E1,2.2014547E4,7.4198813E3,2.8088498E4,1.1832831E4,-1.1360699E4,7.90581E3,1.7351871E4,4.1386743E3,9.383569E3,5.1400006E2,-1.0964713E4,-4.162279E2,1.2586935E4,1.9408079E3,-5.6988086E3,1.3078197E2,-4.814559E3,-1.5912221E4,-3.643182E3,-9.3345604E1,1.0059166E4,1.331528E3,1.8670773E4,5.7563105E3,-4.921802E3,-1.0845978E3,9.052601E3,-1.559154E4,1.8307695E3,-1.430539E4,9.471058E3,7.2755817E2,5.7607695E3,2.4157022E1,-8.243326E3,1.2632751E3,-3.1822832E3,4.0960396E3,-2.2727654E3,-6.162647E3,-7.0092964E3,-1.8631562E3,1.0755681E3,-1.6990656E3,-1.8203271E4,4.283292E3,7.6788555E3,1.743457E4,-6.7316797E2,-6.206503E3,6.5405806E3,-2.5367349E3,-1.9422706E3,1.7864781E3,-9.726614E3,-1.9511553E4,7.573194E3,-7.6184224E3,-8.215072E3,-1.4140961E3],"split_indices":[1,0,0,7,1,1,1,1,2,1,0,0,0,0,7,1,0,1,1,0,0,8,7,1,1,1,0,0,0,8,8,0,7,5,0,0,0,0,0,1,0,7,1,0,0,8,2,1,7,0,0,1,7,1,2,0,7,0,0,1,1,2,1,0,0,0,0,0,0,0,0,0,0,0,0,0,0,0,0,0,0,0,0,0,0,0,0,0,0,0,0,0,0,0,0,0,0,0,0,0,0,0,0,0,0,0,0,0,0,0,0,0,0,0,0,0,0,0,0,0,0,0,0],"split_type":[0,0,0,0,0,0,0,0,0,0,0,0,0,0,0,0,0,0,0,0,0,0,0,0,0,0,0,0,0,0,0,0,0,0,0,0,0,0,0,0,0,0,0,0,0,0,0,0,0,0,0,0,0,0,0,0,0,0,0,0,0,0,0,0,0,0,0,0,0,0,0,0,0,0,0,0,0,0,0,0,0,0,0,0,0,0,0,0,0,0,0,0,0,0,0,0,0,0,0,0,0,0,0,0,0,0,0,0,0,0,0,0,0,0,0,0,0,0,0,0,0,0,0],"sum_hessian":[2.0433E4,9.289E3,1.1144E4,6.8E2,8.609E3,7.579E3,3.565E3,5.46E2,1.34E2,6.609E3,2E3,2.069E3,5.51E3,1.644E3,1.921E3,4.62E2,8.4E1,3E0,1.31E2,4.323E3,2.286E3,1.182E3,8.18E2,4.42E2,1.627E3,1.542E3,3.968E3,1.83E2,1.461E3,1.22E3,7.01E2,3.61E2,1.01E2,2.8E1,5.6E1,1E0,2E0,1E2,3.1E1,2.78E2,4.045E3,3.98E2,1.888E3,1.032E3,1.5E2,7.82E2,3.6E1,1.7E1,4.25E2,1.356E3,2.71E2,1.156E3,3.86E2,1.393E3,2.575E3,5.7E1,1.26E2,1.002E3,4.59E2,1.199E3,2.1E1,6.8E1,6.33E2,5.1E1,3.1E2,7E1,3.1E1,2.1E1,7E0,8E0,4.8E1,6E0,9.4E1,7E0,2.4E1,1.89E2,8.9E1,2.77E2,3.768E3,2.03E2,1.95E2,6.22E2,1.266E3,2.82E2,7.5E2,1.05E2,4.5E1,1.58E2,6.24E2,3.4E1,2E0,5E0,1.2E1,3.38E2,8.7E1,5.99E2,7.57E2,1.76E2,9.5E1,2.91E2,8.65E2,3.07E2,7.9E1,4.72E2,9.21E2,1.35E3,1.225E3,4E0,5.3E1,2.7E1,9.9E1,6.04E2,3.98E2,1.71E2,2.88E2,1.049E3,1.5E2,1.6E1,5E0,3.8E1,3E1,5.14E2,1.19E2],"tree_param":{"num_deleted":"0","num_feature":"9","num_nodes":"123","size_leaf_vector":"1"}},{"base_weights":[2.2637472E1,2.0829112E2,-1.5404281E4,3.8312996E3,-5.980531E2,-1.6783027E4,2.7194293E4,7.0101874E2,1.4784509E4,-6.168183E3,7.186437E2,-1.2331903E4,-3.765223E4,-2.203104E3,3.9930895E4,2.2902611E4,1.0309324E2,1.1772064E3,2.7518412E4,-4.072093E3,-1.9210266E4,1.2601772E4,2.5468463E2,1.429122E4,-1.2883732E4,-4.1640508E4,9.649461E3,-4.304133E2,4.849096E4,4.882378E4,-1.1567477E4,-3.2631892E3,3.9646428E3,1.4883572E4,-1.2604329E4,4.9560633E4,1.3868351E4,6.0334555E4,-4.3795522E3,-1.9947576E4,4.8483023E4,8.817331E3,3.583122E4,1.2674983E3,-4.5291367E3,-6.521011E3,-1.6721092E4,-5.7522832E4,-3.472797E4,-5.456166E3,2.499076E4,1.6138591E4,4.0910393E3,-7.3622163E3,2.3404375E4,-8.926122E3,8.252982E3,7.629137E2,-3.6269478E3,5.419344E3,4.7254294E2,1.5461969E4,2.796196E3,-2.358164E4,-1.2988759E3,2.1956441E4,1.1662948E4,1.5689504E3,1.1246357E4,4.542908E4,5.358848E3,-1.8763743E3,1.075801E3,-9.452895E3,-4.900588E3,-6.2890176E3,2.1325645E4,4.4174473E3,-3.7067703E3,5.497837E3,2.8129662E4,6.9160657E2,-9.964038E2,-1.7907467E3,1.4509448E3,-8.899121E3,-1.4398191E3,-5.1999062E3,8.506549E3,-1.9589875E4,-5.2831665E3,-1.1434407E3,-1.0708802E4,1.3189219E3,9.926921E3],"categories":[],"categories_nodes":[],"categories_segments":[],"categories_sizes":[],"default_left":[0,0,0,0,0,0,0,0,0,0,0,0,0,0,0,0,0,0,0,0,0,0,0,0,0,0,0,0,0,0,0,0,0,0,0,0,0,0,0,0,0,0,0,0,0,0,0,0,0,0,0,0,0,0,0,0,0,0,0,0,0,0,0,0,0,0,0,0,0,0,0,0,0,0,0,0,0,0,0,0,0,0,0,0,0,0,0,0,0,0,0,0,0,0,0],"id":13,"left_children":[1,3,5,7,9,11,13,15,17,19,21,23,25,-1,27,29,31,33,35,37,39,41,43,-1,45,47,49,-1,51,53,55,57,59,61,63,65,67,69,71,73,75,77,79,81,83,85,87,89,91,-1,93,-1,-1,-1,-1,-1,-1,-1,-1,-1,-1,-1,-1,-1,-1,-1,-1,-1,-1,-1,-1,-1,-1,-1,-1,-1,-1,-1,-1,-1,-1,-1,-1,-1,-1,-1,-1,-1,-1,-1,-1,-1,-1,-1,-1],"loss_changes":[5.852748E10,5.8991043E10,1.4728438E10,1.2602725E11,1.2114296E11,2.145806E10,3.812411E9,3.7963854E10,1.4153256E11,8.625322E10,7.365428E10,7.099943E9,8.1365524E9,0E0,2.1941238E9,6.757764E10,3.6228338E10,7.498993E10,1.26283055E11,5.4166413E10,2.2778266E10,4.3815125E10,6.2309134E10,0E0,4.6520873E9,2.1742633E9,2.1627156E9,0E0,1.9079578E8,9.400196E10,2.4270705E10,7.634127E10,4.3703194E10,4.0098927E10,1.0779587E11,3.779746E10,5.3261767E10,4.7591916E10,4.049803E10,1.7569743E10,9.33849E9,5.4341878E10,6.927185E10,5.055274E10,3.0333407E10,2.8458458E9,3.829076E9,1.9539149E9,7.31861E8,0E0,3.5490355E8,0E0,0E0,0E0,0E0,0E0,0E0,0E0,0E0,0E0,0E0,0E0,0E0,0E0,0E0,0E0,0E0,0E0,0E0,0E0,0E0,0E0,0E0,0E0,0E0,0E0,0E0,0E0,0E0,0E0,0E0,0E0,0E0,0E0,0E0,0E0,0E0,0E0,0E0,0E0,0E0,0E0,0E0,0E0,0E0],"parents":[2147483647,0,0,1,1,2,2,3,3,4,4,5,5,6,6,7,7,8,8,9,9,10,10,11,11,12,12,14,14,15,15,16,16,17,17,18,18,19,19,20,20,21,21,22,22,24,24,25,25,26,26,28,28,29,29,30,30,31,31,32,32,33,33,34,34,35,35,36,36,37,37,38,38,39,39,40,40,41,41,42,42,43,43,44,44,45,45,46,46,47,47,48,48,50,50],"right_children":[2,4,6,8,10,12,14,16,18,20,22,24,26,-1,28,30,32,34,36,38,40,42,44,-1,46,48,50,-1,52,54,56,58,60,62,64,66,68,70,72,74,76,78,80,82,84,86,88,90,92,-1,94,-1,-1,-1,-1,-1,-1,-1,-1,-1,-1,-1,-1,-1,-1,-1,-1,-1,-1,-1,-1,-1,-1,-1,-1,-1,-1,-1,-1,-1,-1,-1,-1,-1,-1,-1,-1,-1,-1,-1,-1,-1,-1,-1,-1],"split_conditions":[-1.1641E2,6.84E2,1.2396E4,2.69E2,1.644E3,3.4312E0,3.2917E0,7E0,2.7E1,4.3393E0,7.87E2,1.5E1,7.0544E0,-2.203104E3,6E0,3.33E2,9.13E2,2.65E2,3.416E1,6E0,3.83E2,4E0,3.79E1,1.429122E4,3.304E1,2.03E2,3.367E1,-4.304133E2,4.332E3,6.9E1,6.7371E0,3.68E2,4.36E2,3.376E1,4.96E2,5.71E2,2.96E2,3.371E1,3.83E2,1.311E3,1.1E1,-1.1811E2,4.32E2,2.435E3,-1.2124E2,1.98E2,6.33E3,-1.1555E2,3.277E1,-5.456166E3,3.371E1,1.6138591E4,4.0910393E3,-7.3622163E3,2.3404375E4,-8.926122E3,8.252982E3,7.629137E2,-3.6269478E3,5.419344E3,4.7254294E2,1.5461969E4,2.796196E3,-2.358164E4,-1.2988759E3,2.1956441E4,1.1662948E4,1.5689504E3,1.1246357E4,4.542908E4,5.358848E3,-1.8763743E3,1.075801E3,-9.452895E3,-4.900588E3,-6.2890176E3,2.1325645E4,4.4174473E3,-3.7067703E3,5.497837E3,2.8129662E4,6.9160657E2,-9.964038E2,-1.7907467E3,1.4509448E3,-8.899121E3,-1.4398191E3,-5.1999062E3,8.506549E3,-1.9589875E4,-5.2831665E3,-1.1434407E3,-1.0708802E4,1.3189219E3,9.926921E3],"split_indices":[0,5,3,4,3,7,7,2,2,7,5,4,7,0,2,5,3,6,1,2,4,8,1,0,1,4,1,0,5,5,7,5,5,1,5,5,6,1,4,3,2,0,4,5,0,5,5,0,1,0,1,0,0,0,0,0,0,0,0,0,0,0,0,0,0,0,0,0,0,0,0,0,0,0,0,0,0,0,0,0,0,0,0,0,0,0,0,0,0,0,0,0,0,0,0],"split_type":[0,0,0,0,0,0,0,0,0,0,0,0,0,0,0,0,0,0,0,0,0,0,0,0,0,0,0,0,0,0,0,0,0,0,0,0,0,0,0,0,0,0,0,0,0,0,0,0,0,0,0,0,0,0,0,0,0,0,0,0,0,0,0,0,0,0,0,0,0,0,0,0,0,0,0,0,0,0,0,0,0,0,0,0,0,0,0,0,0,0,0,0,0,0,0],"sum_hessian":[2.0433E4,2.0191E4,2.42E2,3.675E3,1.6516E4,2.35E2,7E0,2.859E3,8.16E2,3.157E3,1.3359E4,1.95E2,4E1,2E0,5E0,7.4E1,2.785E3,3.95E2,4.21E2,2.721E3,4.36E2,5.01E2,1.2858E4,1E0,1.94E2,3.7E1,3E0,1E0,4E0,4.2E1,3.2E1,1.488E3,1.297E3,1.98E2,1.97E2,1.6E2,2.61E2,1.2E1,2.709E3,4.32E2,4E0,4.32E2,6.9E1,1.0612E4,2.246E3,7.4E1,1.2E2,9E0,2.8E1,1E0,2E0,3E0,1E0,1.2E1,3E1,2.2E1,1E1,8.98E2,5.9E2,1.87E2,1.11E3,2.5E1,1.73E2,2.1E1,1.76E2,4.8E1,1.12E2,1.92E2,6.9E1,3E0,9E0,2.193E3,5.16E2,1.01E2,3.31E2,1E0,3E0,3.38E2,9.4E1,5.4E1,1.5E1,8.655E3,1.957E3,1.947E3,2.99E2,4E0,7E1,1.19E2,1E0,7E0,2E0,1E0,2.7E1,1E0,1E0],"tree_param":{"num_deleted":"0","num_feature":"9","num_nodes":"95","size_leaf_vector":"1"}},{"base_weights":[2.2528328E1,-4.2655203E2,5.0294136E3,6.0584087E1,-9.455379E3,1.4893118E4,-3.0008945E3,-5.3120703E2,5.641632E3,8.711524E4,-9.849137E3,7.9937373E3,3.080531E4,-6.1097646E3,8.062495E3,7.087842E2,-3.8183152E3,1.2185404E4,1.1643936E2,3.781728E4,-4.456772E3,-3.9160977E3,-1.4251258E4,-4.9953125E2,2.8813838E4,1.3787063E4,4.8619254E4,2.381688E4,-6.456083E3,-4.581636E2,1.6422152E4,-1.9915605E2,8.545827E3,3.0079574E4,-4.0030166E3,1.5929538E4,-4.955896E2,-3.7318184E3,1.4561609E4,4.4017363E4,-4.738971E3,-1.727973E4,5.9166223E2,2.1875953E4,-2.716053E3,3.9817887E4,1.3705198E4,5.1752266E4,5.5109785E3,1.08069016E5,4.47955E4,-1.7848191E4,-4.9305977E3,6.9996772E3,-1.4325307E4,3.294164E4,1.3485795E4,5.043886E2,-7.024687E2,4.6987266E3,1.2068994E3,2.0949731E3,2.946141E4,-1.8196425E3,-2.1255879E2,1.1546829E3,6.2819717E3,8.407213E2,-7.6327544E3,-2.161029E3,2.2067473E2,5.693065E3,-4.461566E2,2.5867305E4,2.9669111E3,-7.100782E1,-3.7987783E3,-3.4657117E3,-6.8279395E3,7.9550786E3,-1.7692318E3,2.6650986E4,4.4744307E3,-4.0788306E2,-1.1113274E4,2.072012E4,7.721785E3,3.2251675E2,6.7264736E3,1.9748332E4,-7.3576714E3,-7.6281646E3,3.4225713E3,7.0189126E3,3.609728E4,6.142973E3,1.8130457E4,-1.7022958E2,-7.274893E3,1.2215875E3,-2.3466182E3,-2.1738867E3,4.3833364E3,-8.382661E3,-1.9057805E3,6.724187E3,-2.0699919E2],"categories":[],"categories_nodes":[],"categories_segments":[],"categories_sizes":[],"default_left":[0,0,0,0,0,0,0,0,0,0,0,0,0,0,0,0,0,0,0,0,0,0,0,0,0,0,0,0,0,0,0,0,0,0,0,0,0,0,0,0,0,0,0,0,0,0,0,0,0,0,0,0,0,0,0,0,0,0,0,0,0,0,0,0,0,0,0,0,0,0,0,0,0,0,0,0,0,0,0,0,0,0,0,0,0,0,0,0,0,0,0,0,0,0,0,0,0,0,0,0,0,0,0,0,0,0,0],"id":14,"left_children":[1,3,5,7,9,11,13,15,17,19,21,23,25,27,29,31,33,35,37,-1,-1,39,41,43,45,47,49,-1,51,53,55,57,59,61,63,65,67,69,71,73,75,77,79,81,83,85,87,89,91,93,95,97,99,101,103,-1,105,-1,-1,-1,-1,-1,-1,-1,-1,-1,-1,-1,-1,-1,-1,-1,-1,-1,-1,-1,-1,-1,-1,-1,-1,-1,-1,-1,-1,-1,-1,-1,-1,-1,-1,-1,-1,-1,-1,-1,-1,-1,-1,-1,-1,-1,-1,-1,-1,-1,-1],"loss_changes":[4.594787E10,8.248129E10,1.33273534E11,5.877328E10,3.7362508E10,8.264088E10,3.1967482E10,6.5581232E10,6.1680038E10,1.775669E10,2.493907E10,9.3381E10,6.8450615E10,2.1979812E10,1.4538403E10,8.313286E10,2.7712586E10,3.7089255E10,5.1529515E10,0E0,0E0,1.6340863E10,2.4688534E10,1.8707417E10,2.4891482E10,3.6790776E10,2.0391657E10,0E0,1.2476645E10,1.0649005E10,2.6762484E10,4.2188354E10,3.898E10,3.7076783E10,2.978385E10,3.6417913E10,1.4798489E10,1.1357943E10,1.3845885E10,9.230245E9,1.4373769E10,1.4049214E10,1.597016E10,1.4523296E10,1.5921166E10,3.4459582E10,7.241778E9,2.4161096E10,1.8171249E10,3.4109522E9,3.9077708E10,9.389111E9,1.6665377E10,7.370845E9,3.7307796E9,0E0,1.2798403E10,0E0,0E0,0E0,0E0,0E0,0E0,0E0,0E0,0E0,0E0,0E0,0E0,0E0,0E0,0E0,0E0,0E0,0E0,0E0,0E0,0E0,0E0,0E0,0E0,0E0,0E0,0E0,0E0,0E0,0E0,0E0,0E0,0E0,0E0,0E0,0E0,0E0,0E0,0E0,0E0,0E0,0E0,0E0,0E0,0E0,0E0,0E0,0E0,0E0,0E0],"parents":[2147483647,0,0,1,1,2,2,3,3,4,4,5,5,6,6,7,7,8,8,9,9,10,10,11,11,12,12,13,13,14,14,15,15,16,16,17,17,18,18,21,21,22,22,23,23,24,24,25,25,26,26,28,28,29,29,30,30,31,31,32,32,33,33,34,34,35,35,36,36,37,37,38,38,39,39,40,40,41,41,42,42,43,43,44,44,45,45,46,46,47,47,48,48,49,49,50,50,51,51,52,52,53,53,54,54,56,56],"right_children":[2,4,6,8,10,12,14,16,18,20,22,24,26,28,30,32,34,36,38,-1,-1,40,42,44,46,48,50,-1,52,54,56,58,60,62,64,66,68,70,72,74,76,78,80,82,84,86,88,90,92,94,96,98,100,102,104,-1,106,-1,-1,-1,-1,-1,-1,-1,-1,-1,-1,-1,-1,-1,-1,-1,-1,-1,-1,-1,-1,-1,-1,-1,-1,-1,-1,-1,-1,-1,-1,-1,-1,-1,-1,-1,-1,-1,-1,-1,-1,-1,-1,-1,-1,-1,-1,-1,-1,-1,-1],"split_conditions":[1.045E3,2.435E3,3.191E3,3.578E3,8.964E-1,2.5E1,5.308E0,1.305E3,1.832E3,-1.1827E2,3.0526E0,4.175E0,1.096E3,1.0333E0,1.576E3,2.539E3,2.54E2,-1.1775E2,4.89E3,3.781728E4,-4.456772E3,1.321E3,6.025E3,1.545E3,3.426E1,-1.2227E2,3.454E3,2.381688E4,1.171E3,1.313E3,3.502E3,3.5E1,3.416E1,2E0,5.55E2,3.9063E0,8.98E2,-1.1852E2,2.7E1,2.815E3,3.416E1,2.2E1,2.588E3,-1.2202E2,4.1098E0,-1.1834E2,1.143E3,1.171E3,1.8958E0,2.744E3,3.2917E0,4.371E3,3.74E3,6.1183E0,3.389E1,3.294164E4,3.422E1,5.043886E2,-7.024687E2,4.6987266E3,1.2068994E3,2.0949731E3,2.946141E4,-1.8196425E3,-2.1255879E2,1.1546829E3,6.2819717E3,8.407213E2,-7.6327544E3,-2.161029E3,2.2067473E2,5.693065E3,-4.461566E2,2.5867305E4,2.9669111E3,-7.100782E1,-3.7987783E3,-3.4657117E3,-6.8279395E3,7.9550786E3,-1.7692318E3,2.6650986E4,4.4744307E3,-4.0788306E2,-1.1113274E4,2.072012E4,7.721785E3,3.2251675E2,6.7264736E3,1.9748332E4,-7.3576714E3,-7.6281646E3,3.4225713E3,7.0189126E3,3.609728E4,6.142973E3,1.8130457E4,-1.7022958E2,-7.274893E3,1.2215875E3,-2.3466182E3,-2.1738867E3,4.3833364E3,-8.382661E3,-1.9057805E3,6.724187E3,-2.0699919E2],"split_indices":[4,5,5,3,7,2,7,5,5,0,7,7,6,7,4,3,6,0,3,0,0,3,3,5,1,0,3,0,4,6,5,2,1,8,6,7,4,0,2,5,1,2,5,0,7,0,4,4,7,3,7,3,5,7,1,0,1,0,0,0,0,0,0,0,0,0,0,0,0,0,0,0,0,0,0,0,0,0,0,0,0,0,0,0,0,0,0,0,0,0,0,0,0,0,0,0,0,0,0,0,0,0,0,0,0,0,0],"split_type":[0,0,0,0,0,0,0,0,0,0,0,0,0,0,0,0,0,0,0,0,0,0,0,0,0,0,0,0,0,0,0,0,0,0,0,0,0,0,0,0,0,0,0,0,0,0,0,0,0,0,0,0,0,0,0,0,0,0,0,0,0,0,0,0,0,0,0,0,0,0,0,0,0,0,0,0,0,0,0,0,0,0,0,0,0,0,0,0,0,0,0,0,0,0,0,0,0,0,0,0,0,0,0,0,0,0,0],"sum_hessian":[2.0433E4,1.8752E4,1.681E3,1.7793E4,9.59E2,7.54E2,9.27E2,1.6088E4,1.705E3,3E0,9.56E2,5.27E2,2.27E2,7.24E2,2.03E2,1.1682E4,4.406E3,7.8E2,9.25E2,2E0,1E0,4.08E2,5.48E2,3.75E2,1.52E2,1.17E2,1.1E2,2E0,7.22E2,1.01E2,1.02E2,1.047E4,1.212E3,2.3E1,4.383E3,6.02E2,1.78E2,7.31E2,1.94E2,6E0,4.02E2,4.55E2,9.3E1,3.3E1,3.42E2,8.7E1,6.5E1,2E1,9.7E1,5E0,1.05E2,8.4E1,6.38E2,6.6E1,3.5E1,2E0,1E2,5.576E3,4.894E3,4.7E2,7.42E2,1.8E1,5E0,2.695E3,1.688E3,1.77E2,4.25E2,1.58E2,2E1,4.11E2,3.2E2,1.52E2,4.2E1,2E0,4E0,2.57E2,1.45E2,2.24E2,2.31E2,1.8E1,7.5E1,2E0,3.1E1,3.3E2,1.2E1,2.7E1,6E1,2.7E1,3.8E1,1.7E1,3E0,1.5E1,8.2E1,1E0,4E0,4.2E1,6.3E1,2.3E1,6.1E1,1.55E2,4.83E2,2.3E1,4.3E1,1.2E1,2.3E1,6.1E1,3.9E1],"tree_param":{"num_deleted":"0","num_feature":"9","num_nodes":"107","size_leaf_vector":"1"}},{"base_weights":[2.9018013E1,5.0653296E2,-4.3146367E3,3.852292E4,3.5101486E2,-1.0207687E4,-2.883919E3,1.7260059E4,6.984188E4,2.539694E3,-1.0474318E3,2.7198629E4,-1.1551877E4,1.889305E4,-3.6277825E3,4.7811008E4,-6.274807E2,3.51826E4,3.6208023E4,